{"learner":{"attributes":{"scikit_learn":"{\"_estimator_type\": \"regressor\"}"},"feature_names":["selected","form","ict_index","minutes","total_points","GW_points","value","fixture_difficulty","assists","bonus","clean_sheets","goals_conceded","goals_scored","position_DEF","position_FWD","position_GK","position_MID","upcoming_fixture_difficulty","is_upcoming_home","upcoming_blank"],"feature_types":["float","float","float","float","float","float","float","float","float","float","float","float","float","int","int","int","int","float","float","int"],"gradient_booster":{"model":{"gbtree_model_param":{"num_parallel_tree":"1","num_trees":"171"},"iteration_indptr":[0,1,2,3,4,5,6,7,8,9,10,11,12,13,14,15,16,17,18,19,20,21,22,23,24,25,26,27,28,29,30,31,32,33,34,35,36,37,38,39,40,41,42,43,44,45,46,47,48,49,50,51,52,53,54,55,56,57,58,59,60,61,62,63,64,65,66,67,68,69,70,71,72,73,74,75,76,77,78,79,80,81,82,83,84,85,86,87,88,89,90,91,92,93,94,95,96,97,98,99,100,101,102,103,104,105,106,107,108,109,110,111,112,113,114,115,116,117,118,119,120,121,122,123,124,125,126,127,128,129,130,131,132,133,134,135,136,137,138,139,140,141,142,143,144,145,146,147,148,149,150,151,152,153,154,155,156,157,158,159,160,161,162,163,164,165,166,167,168,169,170,171],"tree_info":[0,0,0,0,0,0,0,0,0,0,0,0,0,0,0,0,0,0,0,0,0,0,0,0,0,0,0,0,0,0,0,0,0,0,0,0,0,0,0,0,0,0,0,0,0,0,0,0,0,0,0,0,0,0,0,0,0,0,0,0,0,0,0,0,0,0,0,0,0,0,0,0,0,0,0,0,0,0,0,0,0,0,0,0,0,0,0,0,0,0,0,0,0,0,0,0,0,0,0,0,0,0,0,0,0,0,0,0,0,0,0,0,0,0,0,0,0,0,0,0,0,0,0,0,0,0,0,0,0,0,0,0,0,0,0,0,0,0,0,0,0,0,0,0,0,0,0,0,0,0,0,0,0,0,0,0,0,0,0,0,0,0,0,0,0,0,0,0,0,0,0],"trees":[{"base_weights":[-2.94478E-3,-8.9354104E-1,1.4148105E0,-1.0592104E0,-2.2958416E-1,1.5549042E0,-5.570949E-2,-1.1122566E0,-8.7669915E-1,-4.525695E-1,1.22235864E-1,1.1545857E0,2.3240523E0,-5.2525565E-2,-2.5319314E-2,-4.2644963E-2,-2.1096764E-2,-1.9305862E-2,-5.5500645E-2,-1.4289972E-2,2.0085497E-2,2.5228962E-2,6.640333E-2,9.9089615E-2,1.7654985E-1],"categories":[],"categories_nodes":[],"categories_segments":[],"categories_sizes":[],"default_left":[0,0,0,0,0,0,0,0,0,0,0,0,0,0,0,0,0,0,0,0,0,0,0,0,0],"id":0,"left_children":[1,3,5,7,9,11,-1,13,15,17,19,21,23,-1,-1,-1,-1,-1,-1,-1,-1,-1,-1,-1,-1],"loss_changes":[6.583319E4,3.5221992E3,7.329297E3,2.4714453E2,5.0182614E2,5.8745977E3,0E0,5.9845703E1,7.531006E1,1.18716736E2,3.2294833E2,2.0025156E3,2.0110547E3,0E0,0E0,0E0,0E0,0E0,0E0,0E0,0E0,0E0,0E0,0E0,0E0],"parents":[2147483647,0,0,1,1,2,2,3,3,4,4,5,5,7,7,8,8,9,9,10,10,11,11,12,12],"right_children":[2,4,6,8,10,12,-1,14,16,18,20,22,24,-1,-1,-1,-1,-1,-1,-1,-1,-1,-1,-1,-1],"split_conditions":[1.1E1,5E-2,1E0,2E0,7.598E4,2.41215E5,-5.570949E-2,1E0,1E0,1E0,5.1E1,7E1,8.6E1,-5.2525565E-2,-2.5319314E-2,-4.2644963E-2,-2.1096764E-2,-1.9305862E-2,-5.5500645E-2,-1.4289972E-2,2.0085497E-2,2.5228962E-2,6.640333E-2,9.9089615E-2,1.7654985E-1],"split_indices":[3,1,19,4,0,0,0,5,5,19,6,3,6,0,0,0,0,0,0,0,0,0,0,0,0],"split_type":[0,0,0,0,0,0,0,0,0,0,0,0,0,0,0,0,0,0,0,0,0,0,0,0,0],"sum_hessian":[5.2137E4,3.2022E4,2.0115E4,2.5627E4,6.395E3,1.9087E4,1.028E3,1.9852E4,5.775E3,3.914E3,2.481E3,1.2555E4,6.532E3,1.9669E4,1.83E2,5.388E3,3.87E2,3.703E3,2.11E2,1.035E3,1.446E3,3.702E3,8.853E3,5.679E3,8.53E2],"tree_param":{"num_deleted":"0","num_feature":"20","num_nodes":"25","size_leaf_vector":"1"}},{"base_weights":[4.1224547E-3,-8.421542E-1,1.3907604E0,-9.7035843E-1,-3.4060713E-2,1.5271311E0,-5.3092975E-2,-1.0352488E0,-6.0258526E-1,-1.6818124E-1,7.305993E-1,1.0743285E0,2.1750185E0,-4.9191363E-2,-1.9048797E-2,-2.958363E-2,1.0741576E-2,-5.111392E-3,-5.4116715E-2,4.028627E-2,-5.4426383E-2,2.335148E-2,6.1518073E-2,9.261572E-2,1.6490164E-1],"categories":[],"categories_nodes":[],"categories_segments":[],"categories_sizes":[],"default_left":[0,0,0,0,0,0,0,0,0,0,0,0,0,0,0,0,0,0,0,0,0,0,0,0,0],"id":1,"left_children":[1,3,5,7,9,11,-1,13,15,17,19,21,23,-1,-1,-1,-1,-1,-1,-1,-1,-1,-1,-1,-1],"loss_changes":[6.1191074E4,3.3547754E3,6.7944297E3,6.6635156E2,4.549614E2,5.497965E3,0E0,1.6981445E2,9.3749146E1,2.2039749E2,1.5921954E2,1.4945518E3,2.0959023E3,0E0,0E0,0E0,0E0,0E0,0E0,0E0,0E0,0E0,0E0,0E0,0E0],"parents":[2147483647,0,0,1,1,2,2,3,3,4,4,5,5,7,7,8,8,9,9,10,10,11,11,12,12],"right_children":[2,4,6,8,10,12,-1,14,16,18,20,22,24,-1,-1,-1,-1,-1,-1,-1,-1,-1,-1,-1,-1],"split_conditions":[1.4E1,1E-1,1E0,2.5E-2,6.7E1,1.72798E5,-5.3092975E-2,1E0,7.5E1,1E0,1E0,7E1,8.3E1,-4.9191363E-2,-1.9048797E-2,-2.958363E-2,1.0741576E-2,-5.111392E-3,-5.4116715E-2,4.028627E-2,-5.4426383E-2,2.335148E-2,6.1518073E-2,9.261572E-2,1.6490164E-1],"split_indices":[3,1,19,1,6,0,0,3,6,19,19,3,6,0,0,0,0,0,0,0,0,0,0,0,0],"split_type":[0,0,0,0,0,0,0,0,0,0,0,0,0,0,0,0,0,0,0,0,0,0,0,0,0],"sum_hessian":[5.2143E4,3.2381E4,1.9762E4,2.7947E4,4.434E3,1.8748E4,1.014E3,2.3754E4,4.193E3,3.773E3,6.61E2,1.1037E4,7.711E3,2.3332E4,4.22E2,4.062E3,1.31E2,3.559E3,2.14E2,6.2E2,4.1E1,3.189E3,7.848E3,6.688E3,1.023E3],"tree_param":{"num_deleted":"0","num_feature":"20","num_nodes":"25","size_leaf_vector":"1"}},{"base_weights":[2.250029E-6,-8.1204504E-1,1.286596E0,-9.872276E-1,-3.183354E-1,1.4096888E0,-5.0618567E-2,-1.0099014E0,-7.494168E-1,-5.05042E-1,9.032213E-2,1.0861713E0,2.1806633E0,-4.8396684E-2,-3.9197307E-2,9.871347E-2,-3.5925116E-2,-2.9258672E-2,-1.113257E-2,-2.2290605E-3,4.0817723E-2,2.115444E-2,6.307065E-2,9.209206E-2,1.7032252E-1],"categories":[],"categories_nodes":[],"categories_segments":[],"categories_sizes":[],"default_left":[0,0,0,0,0,0,0,0,0,0,0,0,0,0,0,0,0,0,0,0,0,0,0,0,0],"id":2,"left_children":[1,3,5,7,9,11,-1,13,15,17,19,21,23,-1,-1,-1,-1,-1,-1,-1,-1,-1,-1,-1,-1],"loss_changes":[5.4460984E4,2.763625E3,5.869793E3,1.2642578E2,6.387452E2,4.779586E3,0E0,7.419531E1,8.922449E1,1.8088855E2,2.815168E2,2.1967334E3,1.8021875E3,0E0,0E0,0E0,0E0,0E0,0E0,0E0,0E0,0E0,0E0,0E0,0E0],"parents":[2147483647,0,0,1,1,2,2,3,3,4,4,5,5,7,7,8,8,9,9,10,10,11,11,12,12],"right_children":[2,4,6,8,10,12,-1,14,16,18,20,22,24,-1,-1,-1,-1,-1,-1,-1,-1,-1,-1,-1,-1],"split_conditions":[1.1E1,2.5E-2,1E0,5.4E1,1.6666667E-1,2.94757E5,-5.0618567E-2,6E0,-3.3333335E-2,5.3E1,7E1,7E1,8.8E1,-4.8396684E-2,-3.9197307E-2,9.871347E-2,-3.5925116E-2,-2.9258672E-2,-1.113257E-2,-2.2290605E-3,4.0817723E-2,2.115444E-2,6.307065E-2,9.209206E-2,1.7032252E-1],"split_indices":[3,1,19,6,1,0,0,4,1,6,6,3,6,0,0,0,0,0,0,0,0,0,0,0,0],"split_type":[0,0,0,0,0,0,0,0,0,0,0,0,0,0,0,0,0,0,0,0,0,0,0,0,0],"sum_hessian":[5.2125E4,3.1956E4,2.0169E4,2.3586E4,8.37E3,1.9171E4,9.98E2,2.153E4,2.056E3,5.745E3,2.625E3,1.3506E4,5.665E3,1.9346E4,2.184E3,1E1,2.046E3,3.994E3,1.751E3,2.231E3,3.94E2,3.874E3,9.632E3,4.914E3,7.51E2],"tree_param":{"num_deleted":"0","num_feature":"20","num_nodes":"25","size_leaf_vector":"1"}},{"base_weights":[7.216038E-3,-7.712606E-1,1.2726806E0,-9.198446E-1,-1.9667052E-1,1.3952254E0,-4.8228797E-2,-9.7515136E-1,-7.914984E-1,-3.9516965E-1,1.07699156E-1,9.861998E-1,2.028086E0,-4.5953747E-2,1.4281018E-2,-3.8775627E-2,-1.9754065E-2,-1.6622366E-2,-5.0070073E-2,8.541477E-3,-5.3185385E-2,2.1301132E-2,5.662264E-2,7.948996E-2,1.2689681E-1],"categories":[],"categories_nodes":[],"categories_segments":[],"categories_sizes":[],"default_left":[0,0,0,0,0,0,0,0,0,0,0,0,0,0,0,0,0,0,0,0,0,0,0,0,0],"id":3,"left_children":[1,3,5,7,9,11,-1,13,15,17,19,21,23,-1,-1,-1,-1,-1,-1,-1,-1,-1,-1,-1,-1],"loss_changes":[5.143585E4,2.7596484E3,5.603496E3,1.8154492E2,4.0139343E2,4.885203E3,0E0,5.9695312E1,9.5944336E1,1.11458374E2,2.4086867E2,1.3354443E3,1.6724297E3,0E0,0E0,0E0,0E0,0E0,0E0,0E0,0E0,0E0,0E0,0E0,0E0],"parents":[2147483647,0,0,1,1,2,2,3,3,4,4,5,5,7,7,8,8,9,9,10,10,11,11,12,12],"right_children":[2,4,6,8,10,12,-1,14,16,18,20,22,24,-1,-1,-1,-1,-1,-1,-1,-1,-1,-1,-1,-1],"split_conditions":[1.3E1,5E-2,1E0,1E0,7.598E4,1.89157E5,-4.8228797E-2,8.5E1,1E0,1E0,1E0,7E1,6.5E1,-4.5953747E-2,1.4281018E-2,-3.8775627E-2,-1.9754065E-2,-1.6622366E-2,-5.0070073E-2,8.541477E-3,-5.3185385E-2,2.1301132E-2,5.662264E-2,7.948996E-2,1.2689681E-1],"split_indices":[3,1,19,4,0,0,0,6,3,19,19,3,6,0,0,0,0,0,0,0,0,0,0,0,0],"split_type":[0,0,0,0,0,0,0,0,0,0,0,0,0,0,0,0,0,0,0,0,0,0,0,0,0],"sum_hessian":[5.221E4,3.2325E4,1.9885E4,2.5683E4,6.642E3,1.8879E4,1.006E3,1.7944E4,7.739E3,4.02E3,2.622E3,1.1469E4,7.41E3,1.7908E4,3.6E1,7.097E3,6.42E2,3.787E3,2.33E2,2.475E3,1.47E2,3.336E3,8.133E3,4.938E3,2.472E3],"tree_param":{"num_deleted":"0","num_feature":"20","num_nodes":"25","size_leaf_vector":"1"}},{"base_weights":[-2.4103771E-3,-7.425928E-1,1.1666787E0,-8.705846E-1,-2.3113026E-1,1.2824152E0,-4.597549E-2,-9.0103275E-1,-5.943362E-1,-3.4751043E-1,2.7604395E-1,1.0500785E0,2.2503686E0,-4.2528175E-2,4.6242353E-2,-3.1623203E-2,-1.7328475E-2,-2.8357621E-2,-9.423529E-3,1.760609E-2,-5.0833553E-2,1.5705269E-2,5.9527386E-2,7.221982E-2,1.2632552E-1],"categories":[],"categories_nodes":[],"categories_segments":[],"categories_sizes":[],"default_left":[0,0,0,0,0,0,0,0,0,0,0,0,0,0,0,0,0,0,0,0,0,0,0,0,0],"id":4,"left_children":[1,3,5,7,9,11,-1,13,15,17,19,21,23,-1,-1,-1,-1,-1,-1,-1,-1,-1,-1,-1,-1],"loss_changes":[4.5099742E4,2.0889219E3,5.016965E3,2.1416211E2,3.7720673E2,4.3090195E3,0E0,1.6650781E2,4.4689026E1,1.9534583E2,1.6002542E2,2.3957227E3,1.1541777E3,0E0,0E0,0E0,0E0,0E0,0E0,0E0,0E0,0E0,0E0,0E0,0E0],"parents":[2147483647,0,0,1,1,2,2,3,3,4,4,5,5,7,7,8,8,9,9,10,10,11,11,12,12],"right_children":[2,4,6,8,10,12,-1,14,16,18,20,22,24,-1,-1,-1,-1,-1,-1,-1,-1,-1,-1,-1,-1],"split_conditions":[1.1E1,5E-2,1E0,1.3E1,6E1,6.3E1,-4.597549E-2,8.5E1,2.5E-2,4.6E1,1E0,7E1,8.2E1,-4.2528175E-2,4.6242353E-2,-3.1623203E-2,-1.7328475E-2,-2.8357621E-2,-9.423529E-3,1.760609E-2,-5.0833553E-2,1.5705269E-2,5.9527386E-2,7.221982E-2,1.2632552E-1],"split_indices":[3,1,19,4,6,6,0,6,1,6,19,3,3,0,0,0,0,0,0,0,0,0,0,0,0],"split_type":[0,0,0,0,0,0,0,0,0,0,0,0,0,0,0,0,0,0,0,0,0,0,0,0,0],"sum_hessian":[5.2116E4,3.1912E4,2.0204E4,2.5524E4,6.388E3,1.917E4,1.034E3,2.2988E4,2.536E3,5.196E3,1.192E3,1.5461E4,3.709E3,2.2942E4,4.6E1,1.88E3,6.56E2,1.895E3,3.301E3,1.112E3,8E1,3.59E3,1.1871E4,1.411E3,2.298E3],"tree_param":{"num_deleted":"0","num_feature":"20","num_nodes":"25","size_leaf_vector":"1"}},{"base_weights":[8.1003755E-3,-6.98171E-1,1.1297469E0,-8.346527E-1,-1.6823971E-1,1.2418876E0,-4.3826886E-2,-8.76795E-1,-6.4394236E-1,-2.534333E-1,5.156464E-1,6.359606E-1,1.5793049E0,-4.179804E-2,-3.0302128E-2,-3.3263627E-2,-2.1458704E-2,-9.6888095E-3,-4.7737118E-2,-5.419615E-3,4.4567086E-2,8.378066E-3,3.9664928E-2,6.2173422E-2,1.048984E-1],"categories":[],"categories_nodes":[],"categories_segments":[],"categories_sizes":[],"default_left":[0,0,0,0,0,0,0,0,0,0,0,0,0,0,0,0,0,0,0,0,0,0,0,0,0],"id":5,"left_children":[1,3,5,7,9,11,-1,13,15,17,19,21,23,-1,-1,-1,-1,-1,-1,-1,-1,-1,-1,-1,-1],"loss_changes":[4.1401266E4,2.3192803E3,4.670996E3,2.0438672E2,3.8285834E2,3.914627E3,0E0,6.0125977E1,5.488965E1,2.1036899E2,1.9881372E2,6.52095E2,2.0557852E3,0E0,0E0,0E0,0E0,0E0,0E0,0E0,0E0,0E0,0E0,0E0,0E0],"parents":[2147483647,0,0,1,1,2,2,3,3,4,4,5,5,7,7,8,8,9,9,10,10,11,11,12,12],"right_children":[2,4,6,8,10,12,-1,14,16,18,20,22,24,-1,-1,-1,-1,-1,-1,-1,-1,-1,-1,-1,-1],"split_conditions":[1.1E1,3.3333335E-2,1E0,4E0,6.8E1,5.1562E4,-4.3826886E-2,5.5E1,2.5E-2,1E0,3.3E1,6.4E1,6.3E1,-4.179804E-2,-3.0302128E-2,-3.3263627E-2,-2.1458704E-2,-9.6888095E-3,-4.7737118E-2,-5.419615E-3,4.4567086E-2,8.378066E-3,3.9664928E-2,6.2173422E-2,1.048984E-1],"split_indices":[3,1,19,4,6,0,0,6,1,19,4,3,6,0,0,0,0,0,0,0,0,0,0,0,0],"split_type":[0,0,0,0,0,0,0,0,0,0,0,0,0,0,0,0,0,0,0,0,0,0,0,0,0],"sum_hessian":[5.226E4,3.2068E4,2.0192E4,2.55E4,6.568E3,1.9151E4,1.041E3,2.0882E4,4.618E3,5.841E3,7.27E2,6.851E3,1.23E4,1.981E4,1.072E3,3.443E3,1.175E3,5.501E3,3.4E2,2.96E2,4.31E2,2.141E3,4.71E3,8.832E3,3.468E3],"tree_param":{"num_deleted":"0","num_feature":"20","num_nodes":"25","size_leaf_vector":"1"}},{"base_weights":[1.1972506E-2,-6.7056394E-1,1.0947255E0,-8.1542665E-1,-2.548493E-1,1.2010864E0,-4.176926E-2,-8.2332593E-1,-3.0284002E-1,-3.3287507E-1,3.8989025E-1,7.414793E-1,1.6604242E0,-4.0202636E-2,-3.4059364E-2,-1.7478822E-2,1.0175039E-1,-2.1375224E-2,-4.401525E-3,2.2957768E-2,-4.7631975E-2,1.5200597E-2,4.6272393E-2,7.2230935E-2,1.5841636E-1],"categories":[],"categories_nodes":[],"categories_segments":[],"categories_sizes":[],"default_left":[0,0,0,0,0,0,0,0,0,0,0,0,0,0,0,0,0,0,0,0,0,0,0,0,0],"id":6,"left_children":[1,3,5,7,9,11,-1,13,15,17,19,21,23,-1,-1,-1,-1,-1,-1,-1,-1,-1,-1,-1,-1],"loss_changes":[3.8584883E4,1.9283271E3,4.259711E3,9.59082E1,4.1651508E2,4.0437324E3,0E0,7.33291E1,6.2488853E1,2.1531653E2,1.24162964E2,9.729634E2,2.020125E3,0E0,0E0,0E0,0E0,0E0,0E0,0E0,0E0,0E0,0E0,0E0,0E0],"parents":[2147483647,0,0,1,1,2,2,3,3,4,4,5,5,7,7,8,8,9,9,10,10,11,11,12,12],"right_children":[2,4,6,8,10,12,-1,14,16,18,20,22,24,-1,-1,-1,-1,-1,-1,-1,-1,-1,-1,-1,-1],"split_conditions":[1.1E1,2.5E-2,1E0,1E0,3.25E-1,1.08959E5,-4.176926E-2,4.6E1,7.7E1,5.3E1,1E0,7.6E1,9.5E1,-4.0202636E-2,-3.4059364E-2,-1.7478822E-2,1.0175039E-1,-2.1375224E-2,-4.401525E-3,2.2957768E-2,-4.7631975E-2,1.5200597E-2,4.6272393E-2,7.2230935E-2,1.5841636E-1],"split_indices":[3,1,19,3,1,0,0,6,6,6,19,3,6,0,0,0,0,0,0,0,0,0,0,0,0],"split_type":[0,0,0,0,0,0,0,0,0,0,0,0,0,0,0,0,0,0,0,0,0,0,0,0,0],"sum_hessian":[5.2209E4,3.2023E4,2.0186E4,2.3747E4,8.276E3,1.9159E4,1.027E3,2.3386E4,3.61E2,7.383E3,8.93E2,9.578E3,9.581E3,1.7646E4,5.74E3,3.52E2,9E0,4.89E3,2.493E3,8.35E2,5.8E1,3.522E3,6.056E3,8.937E3,6.44E2],"tree_param":{"num_deleted":"0","num_feature":"20","num_nodes":"25","size_leaf_vector":"1"}},{"base_weights":[-2.0585615E-2,-6.5390646E-1,9.708984E-1,-7.489411E-1,-1.4377636E-1,1.0709444E0,-3.9861962E-2,-7.936264E-1,-5.564533E-1,-2.4647693E-1,3.217015E-1,6.451978E-1,1.5051556E0,-3.759385E-2,-1.495099E-2,-2.9981775E-2,-1.9686522E-2,-9.531125E-3,-4.498366E-2,1.103924E-2,7.700823E-2,1.0664624E-2,4.054224E-2,5.8645014E-2,9.6677035E-2],"categories":[],"categories_nodes":[],"categories_segments":[],"categories_sizes":[],"default_left":[0,0,0,0,0,0,0,0,0,0,0,0,0,0,0,0,0,0,0,0,0,0,0,0,0],"id":7,"left_children":[1,3,5,7,9,11,-1,13,15,17,19,21,23,-1,-1,-1,-1,-1,-1,-1,-1,-1,-1,-1,-1],"loss_changes":[3.289273E4,1.5495566E3,3.7167031E3,2.3132324E2,2.401074E2,3.5768848E3,0E0,6.465625E1,5.666809E1,1.2752487E2,1.03424484E2,8.886304E2,1.3582051E3,0E0,0E0,0E0,0E0,0E0,0E0,0E0,0E0,0E0,0E0,0E0,0E0],"parents":[2147483647,0,0,1,1,2,2,3,3,4,4,5,5,7,7,8,8,9,9,10,10,11,11,12,12],"right_children":[2,4,6,8,10,12,-1,14,16,18,20,22,24,-1,-1,-1,-1,-1,-1,-1,-1,-1,-1,-1,-1],"split_conditions":[9E0,6.666667E-2,1E0,5E0,3.25E-1,1.08959E5,-3.9861962E-2,1E0,2.5E-2,1E0,9.3E1,7E1,6.3E1,-3.759385E-2,-1.495099E-2,-2.9981775E-2,-1.9686522E-2,-9.531125E-3,-4.498366E-2,1.103924E-2,7.700823E-2,1.0664624E-2,4.054224E-2,5.8645014E-2,9.6677035E-2],"split_indices":[3,1,19,4,1,0,0,5,1,19,6,3,6,0,0,0,0,0,0,0,0,0,0,0,0],"split_type":[0,0,0,0,0,0,0,0,0,0,0,0,0,0,0,0,0,0,0,0,0,0,0,0,0],"sum_hessian":[5.2381E4,3.1964E4,2.0417E4,2.6944E4,5.02E3,1.9353E4,1.064E3,2.1865E4,5.079E3,4.113E3,9.07E2,9.773E3,9.58E3,2.1581E4,2.84E2,3.188E3,1.891E3,3.876E3,2.37E2,8.52E2,5.5E1,3.343E3,6.43E3,6.535E3,3.045E3],"tree_param":{"num_deleted":"0","num_feature":"20","num_nodes":"25","size_leaf_vector":"1"}},{"base_weights":[-1.3764037E-2,-5.7560015E-1,9.95551E-1,-6.837523E-1,3.4083206E-2,1.0920258E0,-3.7906818E-2,-7.4543595E-1,-4.4736367E-1,-5.9955362E-2,8.002744E-1,8.961901E-1,1.8756678E0,-3.5736382E-2,-1.7912727E-2,-2.372795E-2,-5.763837E-3,-9.14148E-3,1.8802814E-2,9.6713025E-3,6.255496E-2,1.9347992E-2,5.0130185E-2,7.9748385E-2,1.4340284E-1],"categories":[],"categories_nodes":[],"categories_segments":[],"categories_sizes":[],"default_left":[0,0,0,0,0,0,0,0,0,0,0,0,0,0,0,0,0,0,0,0,0,0,0,0,0],"id":8,"left_children":[1,3,5,7,9,11,-1,13,15,17,19,21,23,-1,-1,-1,-1,-1,-1,-1,-1,-1,-1,-1,-1],"loss_changes":[2.9628824E4,2.213254E3,3.2491895E3,4.153496E2,3.644846E2,2.7200215E3,0E0,1.2253125E2,1.1011365E2,2.7896494E2,1.7419302E2,1.171293E3,7.4027246E2,0E0,0E0,0E0,0E0,0E0,0E0,0E0,0E0,0E0,0E0,0E0,0E0],"parents":[2147483647,0,0,1,1,2,2,3,3,4,4,5,5,7,7,8,8,9,9,10,10,11,11,12,12],"right_children":[2,4,6,8,10,12,-1,14,16,18,20,22,24,-1,-1,-1,-1,-1,-1,-1,-1,-1,-1,-1,-1],"split_conditions":[2.2E1,1E-1,1E0,6E0,8.2E1,6.2E1,-3.7906818E-2,5.7E1,1E0,1E-1,6.1E1,2.2805E4,2.07911E6,-3.5736382E-2,-1.7912727E-2,-2.372795E-2,-5.763837E-3,-9.14148E-3,1.8802814E-2,9.6713025E-3,6.255496E-2,1.9347992E-2,5.0130185E-2,7.9748385E-2,1.4340284E-1],"split_indices":[3,1,19,4,4,6,0,6,3,2,6,0,0,0,0,0,0,0,0,0,0,0,0,0,0],"split_type":[0,0,0,0,0,0,0,0,0,0,0,0,0,0,0,0,0,0,0,0,0,0,0,0,0],"sum_hessian":[5.2247E4,3.3564E4,1.8683E4,2.8507E4,5.057E3,1.7734E4,9.49E2,2.2606E4,5.901E3,4.505E3,5.52E2,1.419E4,3.544E3,2.1716E4,8.9E2,5.013E3,8.88E2,3.486E3,1.019E3,2.61E2,2.91E2,3.693E3,1.0497E4,3.078E3,4.66E2],"tree_param":{"num_deleted":"0","num_feature":"20","num_nodes":"25","size_leaf_vector":"1"}},{"base_weights":[5.027168E-3,-5.3478754E-1,9.825504E-1,-6.450481E-1,6.862779E-2,1.0765313E0,-3.612691E-2,-6.737614E-1,-1.8087775E-1,1.0866757E-2,1.2713708E0,7.681338E-1,1.5826892E0,-3.3749193E-2,-2.2657853E-2,-1.7341524E-2,6.779644E-3,3.2494129E-3,-4.2470664E-2,4.414276E-2,1.3368988E-1,2.6227973E-2,5.6513105E-2,4.7219165E-2,8.556188E-2],"categories":[],"categories_nodes":[],"categories_segments":[],"categories_sizes":[],"default_left":[0,0,0,0,0,0,0,0,0,0,0,0,0,0,0,0,0,0,0,0,0,0,0,0,0],"id":9,"left_children":[1,3,5,7,9,11,-1,13,15,17,19,21,23,-1,-1,-1,-1,-1,-1,-1,-1,-1,-1,-1,-1],"loss_changes":[2.7531775E4,2.236415E3,3.0557617E3,3.786582E2,3.6082208E2,2.7487598E3,0E0,2.269502E2,1.0138399E2,2.642087E2,1.2168915E2,9.982842E2,9.147656E2,0E0,0E0,0E0,0E0,0E0,0E0,0E0,0E0,0E0,0E0,0E0,0E0],"parents":[2147483647,0,0,1,1,2,2,3,3,4,4,5,5,7,7,8,8,9,9,10,10,11,11,12,12],"right_children":[2,4,6,8,10,12,-1,14,16,18,20,22,24,-1,-1,-1,-1,-1,-1,-1,-1,-1,-1,-1,-1],"split_conditions":[2.4E1,1E-1,1E0,1E0,1.05E2,5.5E1,-3.612691E-2,6E0,5.3E1,1E0,1.01E2,3E-1,7.9E1,-3.3749193E-2,-2.2657853E-2,-1.7341524E-2,6.779644E-3,3.2494129E-3,-4.2470664E-2,4.414276E-2,1.3368988E-1,2.6227973E-2,5.6513105E-2,4.7219165E-2,8.556188E-2],"split_indices":[3,1,19,3,4,6,0,4,6,19,6,1,3,0,0,0,0,0,0,0,0,0,0,0,0],"split_type":[0,0,0,0,0,0,0,0,0,0,0,0,0,0,0,0,0,0,0,0,0,0,0,0,0],"sum_hessian":[5.2173E4,3.3612E4,1.8561E4,2.8419E4,5.193E3,1.7616E4,9.45E2,2.6763E4,1.656E3,4.956E3,2.37E2,1.0948E4,6.668E3,2.1736E4,5.027E3,1.049E3,6.07E2,4.66E3,2.96E2,1.97E2,4E1,7.38E3,3.568E3,1.945E3,4.723E3],"tree_param":{"num_deleted":"0","num_feature":"20","num_nodes":"25","size_leaf_vector":"1"}},{"base_weights":[-7.0797945E-3,-5.4407275E-1,8.7652624E-1,-6.5269035E-1,-1.376084E-1,9.64882E-1,-3.4567744E-2,-6.897719E-1,-4.853783E-1,-2.3548779E-1,4.8121688E-1,7.0486313E-1,1.5397773E0,-3.252718E-2,2.7648805E-2,-2.4305347E-2,-5.444297E-3,-1.8031057E-2,-1.2122728E-3,2.7223736E-2,-4.478498E-2,1.6357427E-2,4.298423E-2,6.567741E-2,1.3172284E-1],"categories":[],"categories_nodes":[],"categories_segments":[],"categories_sizes":[],"default_left":[0,0,0,0,0,0,0,0,0,0,0,0,0,0,0,0,0,0,0,0,0,0,0,0,0],"id":10,"left_children":[1,3,5,7,9,11,-1,13,15,17,19,21,23,-1,-1,-1,-1,-1,-1,-1,-1,-1,-1,-1,-1],"loss_changes":[2.467444E4,1.427915E3,2.8004639E3,1.5802051E2,4.133235E2,2.7846914E3,0E0,6.1703125E1,5.4322266E1,1.830037E2,1.3155136E2,9.599995E2,1.0395186E3,0E0,0E0,0E0,0E0,0E0,0E0,0E0,0E0,0E0,0E0,0E0,0E0],"parents":[2147483647,0,0,1,1,2,2,3,3,4,4,5,5,7,7,8,8,9,9,10,10,11,11,12,12],"right_children":[2,4,6,8,10,12,-1,14,16,18,20,22,24,-1,-1,-1,-1,-1,-1,-1,-1,-1,-1,-1,-1],"split_conditions":[1.4E1,3.3333335E-2,1E0,4E0,3.25E-1,2.74181E5,-3.4567744E-2,8.5E1,1E0,5.2E1,1E0,2E0,9.5E1,-3.252718E-2,2.7648805E-2,-2.4305347E-2,-5.444297E-3,-1.8031057E-2,-1.2122728E-3,2.7223736E-2,-4.478498E-2,1.6357427E-2,4.298423E-2,6.567741E-2,1.3172284E-1],"split_indices":[3,1,19,4,1,0,0,6,3,6,19,5,6,0,0,0,0,0,0,0,0,0,0,0,0],"split_type":[0,0,0,0,0,0,0,0,0,0,0,0,0,0,0,0,0,0,0,0,0,0,0,0,0],"sum_hessian":[5.2E4,3.2344E4,1.9656E4,2.5523E4,6.821E3,1.8635E4,1.021E3,2.089E4,4.633E3,5.89E3,9.31E2,1.2833E4,5.802E3,2.0853E4,3.7E1,4.266E3,3.67E2,3.451E3,2.439E3,8.72E2,5.9E1,4.751E3,8.082E3,5.216E3,5.86E2],"tree_param":{"num_deleted":"0","num_feature":"20","num_nodes":"25","size_leaf_vector":"1"}},{"base_weights":[9.99961E-3,-5.3265816E-1,8.61595E-1,-6.072446E-1,-4.37413E-2,6.579635E-1,1.5182701E0,-6.4914304E-1,-4.3631393E-1,-2.947224E-1,1.9220556E-1,7.3113006E-1,-3.3088084E-2,1.637254E0,-3.3047054E-2,-3.080657E-2,-1.2886341E-2,-1.9367596E-2,-4.0135298E-2,-1.2231093E-2,-3.8543742E-2,1.2502814E-2,-4.329962E-2,7.981375E-3,4.279569E-2,5.5802066E-2,9.557446E-2],"categories":[],"categories_nodes":[],"categories_segments":[],"categories_sizes":[],"default_left":[0,0,0,0,0,0,0,0,0,0,0,0,0,0,0,0,0,0,0,0,0,0,0,0,0,0,0],"id":11,"left_children":[1,3,5,7,9,11,13,15,17,19,21,23,-1,25,-1,-1,-1,-1,-1,-1,-1,-1,-1,-1,-1,-1,-1],"loss_changes":[2.420748E4,1.1667217E3,2.7252793E3,1.9852539E2,2.5090497E2,1.5514712E3,1.2764502E3,5.261621E1,5.499646E1,3.6982162E1,1.797425E2,1.4874175E3,0E0,8.142031E2,0E0,0E0,0E0,0E0,0E0,0E0,0E0,0E0,0E0,0E0,0E0,0E0,0E0],"parents":[2147483647,0,0,1,1,2,2,3,3,4,4,5,5,6,6,7,7,8,8,9,9,10,10,11,11,13,13],"right_children":[2,4,6,8,10,12,14,16,18,20,22,24,-1,26,-1,-1,-1,-1,-1,-1,-1,-1,-1,-1,-1,-1,-1],"split_conditions":[1E1,1E-1,6E1,6E0,5.1E1,1E0,1E0,1E0,1E0,1E0,1E0,7.1E1,-3.3088084E-2,3.53301E5,-3.3047054E-2,-3.080657E-2,-1.2886341E-2,-1.9367596E-2,-4.0135298E-2,-1.2231093E-2,-3.8543742E-2,1.2502814E-2,-4.329962E-2,7.981375E-3,4.279569E-2,5.5802066E-2,9.557446E-2],"split_indices":[3,1,6,4,6,19,19,5,19,19,19,3,0,0,0,0,0,0,0,0,0,0,0,0,0,0,0],"split_type":[0,0,0,0,0,0,0,0,0,0,0,0,0,0,0,0,0,0,0,0,0,0,0,0,0,0,0],"sum_hessian":[5.2381E4,3.1994E4,2.0387E4,2.7759E4,4.235E3,1.5563E4,4.824E3,2.2292E4,5.467E3,2.052E3,2.183E3,1.477E4,7.93E2,4.579E3,2.45E2,2.1922E4,3.7E2,5.169E3,2.98E2,1.927E3,1.25E2,2.048E3,1.35E2,3.578E3,1.1192E4,2.146E3,2.433E3],"tree_param":{"num_deleted":"0","num_feature":"20","num_nodes":"27","size_leaf_vector":"1"}},{"base_weights":[6.070884E-4,-4.986753E-1,8.2768905E-1,-5.822859E-1,-6.6542946E-2,4.7685394E-1,1.1732494E0,-6.1186165E-1,-3.7676883E-1,-1.03555836E-1,1.4289504E0,5.3534454E-1,-3.1414833E-2,1.275785E0,-3.1340316E-2,-2.9648006E-2,-1.9696528E-2,-1.6392767E-2,-3.9088048E-2,-2.8600695E-3,-3.887956E-2,4.9872644E-2,1.7710762E-1,2.0917578E-2,5.7726175E-2,5.521498E-2,1.255829E-1],"categories":[],"categories_nodes":[],"categories_segments":[],"categories_sizes":[],"default_left":[0,0,0,0,0,0,0,0,0,0,0,0,0,0,0,0,0,0,0,0,0,0,0,0,0,0,0],"id":12,"left_children":[1,3,5,7,9,11,13,15,17,19,21,23,-1,25,-1,-1,-1,-1,-1,-1,-1,-1,-1,-1,-1,-1,-1],"loss_changes":[2.1633078E4,1.1802476E3,2.3901885E3,1.6613965E2,2.933503E2,6.559558E2,1.8751211E3,8.713086E1,4.3580444E1,1.5971838E2,1.0614084E2,5.820044E2,0E0,1.323792E3,0E0,0E0,0E0,0E0,0E0,0E0,0E0,0E0,0E0,0E0,0E0,0E0,0E0],"parents":[2147483647,0,0,1,1,2,2,3,3,4,4,5,5,6,6,7,7,8,8,9,9,10,10,11,11,13,13],"right_children":[2,4,6,8,10,12,14,16,18,20,22,24,-1,26,-1,-1,-1,-1,-1,-1,-1,-1,-1,-1,-1,-1,-1],"split_conditions":[1.4E1,7.5E-2,1.08959E5,2.5E-2,9.2E1,1E0,1E0,5.4E1,1E0,1E0,1.651428E6,3.6666667E-1,-3.1414833E-2,9.5E1,-3.1340316E-2,-2.9648006E-2,-1.9696528E-2,-1.6392767E-2,-3.9088048E-2,-2.8600695E-3,-3.887956E-2,4.9872644E-2,1.7710762E-1,2.0917578E-2,5.7726175E-2,5.521498E-2,1.255829E-1],"split_indices":[3,1,0,1,6,19,19,6,19,19,0,1,0,6,0,0,0,0,0,0,0,0,0,0,0,0,0],"split_type":[0,0,0,0,0,0,0,0,0,0,0,0,0,0,0,0,0,0,0,0,0,0,0,0,0,0,0],"sum_hessian":[5.2385E4,3.2666E4,1.9719E4,2.737E4,5.296E3,9.786E3,9.933E3,2.3925E4,3.445E3,5.169E3,1.27E2,9.311E3,4.75E2,9.409E3,5.24E2,2.1782E4,2.143E3,3.247E3,1.98E2,4.882E3,2.87E2,1.11E2,1.6E1,8.239E3,1.072E3,8.776E3,6.33E2],"tree_param":{"num_deleted":"0","num_feature":"20","num_nodes":"27","size_leaf_vector":"1"}},{"base_weights":[4.9974746E-3,-4.5636958E-1,8.2067525E-1,-5.319519E-1,1.410132E-1,8.9704704E-1,-3.0100292E-2,-5.831603E-1,-3.1766468E-1,6.8612374E-2,1.1932343E0,6.2732404E-1,1.3217893E0,-2.8934324E-2,-2.2893844E-2,-1.5569325E-2,4.786928E-2,5.7672895E-3,-3.6068477E-2,6.383318E-2,-4.3923236E-2,9.548602E-3,3.718805E-2,3.5508156E-2,7.415502E-2],"categories":[],"categories_nodes":[],"categories_segments":[],"categories_sizes":[],"default_left":[0,0,0,0,0,0,0,0,0,0,0,0,0,0,0,0,0,0,0,0,0,0,0,0,0],"id":13,"left_children":[1,3,5,7,9,11,-1,13,15,17,19,21,23,-1,-1,-1,-1,-1,-1,-1,-1,-1,-1,-1,-1],"loss_changes":[1.9720654E4,1.5113438E3,2.1131465E3,3.2585352E2,2.8636124E2,2.0603848E3,0E0,7.4479004E1,1.04497314E2,1.5924318E2,8.618915E1,7.650303E2,1.0116367E3,0E0,0E0,0E0,0E0,0E0,0E0,0E0,0E0,0E0,0E0,0E0,0E0],"parents":[2147483647,0,0,1,1,2,2,3,3,4,4,5,5,7,7,8,8,9,9,10,10,11,11,12,12],"right_children":[2,4,6,8,10,12,-1,14,16,18,20,22,24,-1,-1,-1,-1,-1,-1,-1,-1,-1,-1,-1,-1],"split_conditions":[6E-1,1.5E-1,1E0,2.5E-2,1.05E2,5.5E1,-3.0100292E-2,4.6E1,8.7E1,1E0,1E0,8.8E1,7.7E1,-2.8934324E-2,-2.2893844E-2,-1.5569325E-2,4.786928E-2,5.7672895E-3,-3.6068477E-2,6.383318E-2,-4.3923236E-2,9.548602E-3,3.718805E-2,3.5508156E-2,7.415502E-2],"split_indices":[2,1,19,1,4,6,0,6,6,19,19,3,3,0,0,0,0,0,0,0,0,0,0,0,0],"split_type":[0,0,0,0,0,0,0,0,0,0,0,0,0,0,0,0,0,0,0,0,0,0,0,0,0],"sum_hessian":[5.2401E4,3.347E4,1.8931E4,2.9711E4,3.759E3,1.7991E4,9.4E2,2.3979E4,5.732E3,3.518E3,2.41E2,1.1005E4,6.986E3,1.7918E4,6.061E3,5.675E3,5.7E1,3.305E3,2.13E2,2.24E2,1.7E1,3.068E3,7.937E3,2.176E3,4.81E3],"tree_param":{"num_deleted":"0","num_feature":"20","num_nodes":"25","size_leaf_vector":"1"}},{"base_weights":[6.184861E-3,-4.2999715E-1,7.773081E-1,-5.1296175E-1,4.325122E-2,8.5189205E-1,-2.8416384E-2,-5.6303245E-1,-3.5255924E-1,-2.33014E-1,2.6994818E-1,6.1179817E-1,1.2943934E0,-2.7122773E-2,-1.563914E-2,-1.8540822E-2,-4.6829125E-3,-1.4887218E-2,5.8945958E-3,-5.124593E-3,2.2845568E-2,2.1359023E-2,4.8983835E-2,5.5437002E-2,1.0024376E-1],"categories":[],"categories_nodes":[],"categories_segments":[],"categories_sizes":[],"default_left":[0,0,0,0,0,0,0,0,0,0,0,0,0,0,0,0,0,0,0,0,0,0,0,0,0],"id":14,"left_children":[1,3,5,7,9,11,-1,13,15,17,19,21,23,-1,-1,-1,-1,-1,-1,-1,-1,-1,-1,-1,-1],"loss_changes":[1.7624406E4,1.3140713E3,1.9517041E3,2.2850537E2,3.1276694E2,1.9075244E3,0E0,7.00083E1,7.182483E1,6.759976E1,2.2472815E2,7.882583E2,6.0596094E2,0E0,0E0,0E0,0E0,0E0,0E0,0E0,0E0,0E0,0E0,0E0,0E0],"parents":[2147483647,0,0,1,1,2,2,3,3,4,4,5,5,7,7,8,8,9,9,10,10,11,11,12,12],"right_children":[2,4,6,8,10,12,-1,14,16,18,20,22,24,-1,-1,-1,-1,-1,-1,-1,-1,-1,-1,-1,-1],"split_conditions":[2.1E1,1E-1,1E0,4E0,5.1562E4,2.41215E5,-2.8416384E-2,5.5E1,1E0,2E-1,5.1E1,4.8E0,8.9E1,-2.7122773E-2,-1.563914E-2,-1.8540822E-2,-4.6829125E-3,-1.4887218E-2,5.8945958E-3,-5.124593E-3,2.2845568E-2,2.1359023E-2,4.8983835E-2,5.5437002E-2,1.0024376E-1],"split_indices":[3,1,19,4,0,0,0,6,5,2,6,2,6,0,0,0,0,0,0,0,0,0,0,0,0],"split_type":[0,0,0,0,0,0,0,0,0,0,0,0,0,0,0,0,0,0,0,0,0,0,0,0,0],"sum_hessian":[5.2397E4,3.3467E4,1.893E4,2.8475E4,4.992E3,1.7961E4,9.69E2,2.1699E4,6.776E3,2.25E3,2.742E3,1.1645E4,6.316E3,2.045E4,1.249E3,5.812E3,9.64E2,1.824E3,4.26E2,9.96E2,1.746E3,8.529E3,3.116E3,5.557E3,7.59E2],"tree_param":{"num_deleted":"0","num_feature":"20","num_nodes":"25","size_leaf_vector":"1"}},{"base_weights":[-3.3750231E-3,-4.201965E-1,7.353841E-1,-4.8881996E-1,1.12006284E-1,4.498892E-1,1.1075164E0,-5.3671235E-1,-3.397077E-1,1.6211344E-1,-7.443833E-1,1.21768095E-1,6.2543654E-1,1.1983427E0,-2.7521025E-2,-2.6626982E-2,-2.0805536E-2,-2.150463E-2,-8.446488E-3,-4.9772533E-3,1.5548546E-2,-3.6652617E-2,-2.7622236E-2,-8.107786E-3,1.2819163E-2,3.2670572E-2,-2.7114024E-2,5.2085944E-2,1.2282892E-1],"categories":[],"categories_nodes":[],"categories_segments":[],"categories_sizes":[],"default_left":[0,0,0,0,0,0,0,0,0,0,0,0,0,0,0,0,0,0,0,0,0,0,0,0,0,0,0,0,0],"id":15,"left_children":[1,3,5,7,9,11,13,15,17,19,21,23,25,27,-1,-1,-1,-1,-1,-1,-1,-1,-1,-1,-1,-1,-1,-1,-1],"loss_changes":[1.6081064E4,1.2193647E3,2.0007812E3,2.1100879E2,1.6378416E2,6.1400586E2,1.2581221E3,6.2513184E1,1.3551178E2,1.629917E2,7.139435E-1,1.6519162E2,5.822588E2,9.869336E2,0E0,0E0,0E0,0E0,0E0,0E0,0E0,0E0,0E0,0E0,0E0,0E0,0E0,0E0,0E0],"parents":[2147483647,0,0,1,1,2,2,3,3,4,4,5,5,6,6,7,7,8,8,9,9,10,10,11,11,12,12,13,13],"right_children":[2,4,6,8,10,12,14,16,18,20,22,24,26,28,-1,-1,-1,-1,-1,-1,-1,-1,-1,-1,-1,-1,-1,-1,-1],"split_conditions":[6E-1,1.5E-1,5.4E1,4.9E1,1E0,1.5E-1,1E0,2E0,1.5419E4,5E1,1.2E1,7.6E1,1E0,1.04E2,-2.7521025E-2,-2.6626982E-2,-2.0805536E-2,-2.150463E-2,-8.446488E-3,-4.9772533E-3,1.5548546E-2,-3.6652617E-2,-2.7622236E-2,-8.107786E-3,1.2819163E-2,3.2670572E-2,-2.7114024E-2,5.2085944E-2,1.2282892E-1],"split_indices":[2,1,6,6,19,1,19,4,0,6,3,3,19,6,0,0,0,0,0,0,0,0,0,0,0,0,0,0,0],"split_type":[0,0,0,0,0,0,0,0,0,0,0,0,0,0,0,0,0,0,0,0,0,0,0,0,0,0,0,0,0],"sum_hessian":[5.2221E4,3.3385E4,1.8836E4,2.9572E4,3.813E3,1.066E4,8.176E3,2.2381E4,7.191E3,3.603E3,2.1E2,3.716E3,6.944E3,7.76E3,4.16E2,1.6989E4,5.392E3,4.14E3,3.051E3,1.392E3,2.211E3,1.68E2,4.2E1,1.26E3,2.456E3,6.564E3,3.8E2,7.297E3,4.63E2],"tree_param":{"num_deleted":"0","num_feature":"20","num_nodes":"29","size_leaf_vector":"1"}},{"base_weights":[-7.4138725E-3,-3.653655E-1,7.7128726E-1,-4.8802444E-1,-2.0609904E-2,6.1901766E-1,1.4069003E0,-5.0625193E-1,-1.6550072E-1,-1.2688313E-1,4.031938E-1,6.832712E-1,-2.6092645E-2,1.5114096E0,-2.5609538E-2,-2.4579208E-2,-1.7096689E-2,-1.1554491E-2,2.3343746E-2,-1.0535373E-2,8.21029E-3,6.565565E-3,3.9960653E-2,2.45471E-2,4.7794465E-2,4.971218E-2,8.349028E-2],"categories":[],"categories_nodes":[],"categories_segments":[],"categories_sizes":[],"default_left":[0,0,0,0,0,0,0,0,0,0,0,0,0,0,0,0,0,0,0,0,0,0,0,0,0,0,0],"id":16,"left_children":[1,3,5,7,9,11,13,15,17,19,21,23,-1,25,-1,-1,-1,-1,-1,-1,-1,-1,-1,-1,-1,-1,-1],"loss_changes":[1.4535318E4,1.510706E3,1.5885254E3,1.5482178E2,4.223367E2,1.0000283E3,6.480513E2,5.919287E1,7.5185776E1,2.1996263E2,2.2133313E2,6.7425586E2,0E0,3.602295E2,0E0,0E0,0E0,0E0,0E0,0E0,0E0,0E0,0E0,0E0,0E0,0E0,0E0],"parents":[2147483647,0,0,1,1,2,2,3,3,4,4,5,5,6,6,7,7,8,8,9,9,10,10,11,11,13,13],"right_children":[2,4,6,8,10,12,14,16,18,20,22,24,-1,26,-1,-1,-1,-1,-1,-1,-1,-1,-1,-1,-1,-1,-1],"split_conditions":[6E1,3.3333335E-2,6.3E1,1E0,9E-1,1E0,1E0,1.2E1,1.43615E5,2.5E-1,4.1E1,3.25E-1,-2.6092645E-2,5.1E0,-2.5609538E-2,-2.4579208E-2,-1.7096689E-2,-1.1554491E-2,2.3343746E-2,-1.0535373E-2,8.21029E-3,6.565565E-3,3.9960653E-2,2.45471E-2,4.7794465E-2,4.971218E-2,8.349028E-2],"split_indices":[3,1,6,3,2,19,19,4,0,1,4,1,0,2,0,0,0,0,0,0,0,0,0,0,0,0,0],"split_type":[0,0,0,0,0,0,0,0,0,0,0,0,0,0,0,0,0,0,0,0,0,0,0,0,0,0,0],"sum_hessian":[5.2145E4,3.5724E4,1.6421E4,2.6349E4,9.375E3,1.3249E4,3.172E3,2.4939E4,1.41E3,7.496E3,1.879E3,1.2562E4,6.87E2,3.011E3,1.61E2,2.2319E4,2.62E3,1.258E3,1.52E2,5.668E3,1.828E3,1.183E3,6.96E2,8.475E3,4.087E3,1.112E3,1.899E3],"tree_param":{"num_deleted":"0","num_feature":"20","num_nodes":"27","size_leaf_vector":"1"}},{"base_weights":[4.367069E-3,-3.5929745E-1,6.822375E-1,-4.346064E-1,1.8912661E-1,7.474271E-1,-5.4094696E-1,-4.8555702E-1,-2.7063113E-1,1.1744815E-1,9.9085367E-1,5.716305E-1,1.2174015E0,-3.2379042E-2,-2.492994E-2,-2.3412772E-2,-1.3889578E-2,-1.4097962E-2,5.5220295E-3,-7.3054167E-3,1.708219E-2,-2.2089478E-2,5.409596E-2,1.8723259E-2,4.344292E-2,5.2602004E-2,1.22653045E-1],"categories":[],"categories_nodes":[],"categories_segments":[],"categories_sizes":[],"default_left":[0,0,0,0,0,0,0,0,0,0,0,0,0,0,0,0,0,0,0,0,0,0,0,0,0,0,0],"id":17,"left_children":[1,3,5,7,9,11,13,15,17,19,21,23,25,-1,-1,-1,-1,-1,-1,-1,-1,-1,-1,-1,-1,-1,-1],"loss_changes":[1.2884971E4,1.4050679E3,1.4556387E3,2.4976465E2,2.3595624E2,1.4308594E3,1.0732727E0,5.443506E1,8.076666E1,2.5327032E2,7.937082E1,7.7032227E2,6.419053E2,0E0,0E0,0E0,0E0,0E0,0E0,0E0,0E0,0E0,0E0,0E0,0E0,0E0,0E0],"parents":[2147483647,0,0,1,1,2,2,3,3,4,4,5,5,6,6,7,7,8,8,9,9,10,10,11,11,12,12],"right_children":[2,4,6,8,10,12,14,16,18,20,22,24,26,-1,-1,-1,-1,-1,-1,-1,-1,-1,-1,-1,-1,-1,-1],"split_conditions":[8E-1,1.5E-1,1E0,6E0,8.6E1,3.75E-1,2.2E1,5.5E1,6.8E1,5.2E1,1.2356E4,5.5E1,1.03E2,-3.2379042E-2,-2.492994E-2,-2.3412772E-2,-1.3889578E-2,-1.4097962E-2,5.5220295E-3,-7.3054167E-3,1.708219E-2,-2.2089478E-2,5.409596E-2,1.8723259E-2,4.344292E-2,5.2602004E-2,1.22653045E-1],"split_indices":[2,1,19,4,3,1,3,6,6,6,0,6,6,0,0,0,0,0,0,0,0,0,0,0,0,0,0],"split_type":[0,0,0,0,0,0,0,0,0,0,0,0,0,0,0,0,0,0,0,0,0,0,0,0,0,0,0],"sum_hessian":[5.2266E4,3.4017E4,1.8249E4,2.991E4,4.107E3,1.7326E4,9.23E2,2.2818E4,7.092E3,3.771E3,3.36E2,1.2611E4,4.715E3,5.7E1,8.66E2,2.1399E4,1.419E3,6.594E3,4.98E2,1.788E3,1.983E3,3.3E1,3.03E2,8.458E3,4.153E3,4.406E3,3.09E2],"tree_param":{"num_deleted":"0","num_feature":"20","num_nodes":"27","size_leaf_vector":"1"}},{"base_weights":[-4.64979E-3,-3.634545E-1,6.517865E-1,-4.3179742E-1,1.3526783E-2,4.5501316E-1,1.0615051E0,-4.4913793E-1,-1.4508188E-1,-4.1197993E-2,8.4543765E-1,2.7865264E-1,7.5846297E-1,1.1449951E0,-2.364575E-2,-2.2376029E-2,-1.5624184E-2,-1.18754245E-2,4.973133E-3,-6.9462154E-3,1.0559372E-2,1.1718216E-2,6.1069053E-2,1.5022968E-2,-2.4205107E-2,3.8702272E-2,-2.361353E-2,3.254644E-2,6.444037E-2],"categories":[],"categories_nodes":[],"categories_segments":[],"categories_sizes":[],"default_left":[0,0,0,0,0,0,0,0,0,0,0,0,0,0,0,0,0,0,0,0,0,0,0,0,0,0,0,0,0],"id":18,"left_children":[1,3,5,7,9,11,13,15,17,19,21,23,25,27,-1,-1,-1,-1,-1,-1,-1,-1,-1,-1,-1,-1,-1,-1,-1],"loss_changes":[1.2340486E4,8.728135E2,1.4923892E3,1.4251611E2,2.3677074E2,6.693342E2,7.8526416E2,8.488965E1,4.421392E1,1.3833055E2,8.653172E1,2.5759082E2,3.7719287E2,5.824888E2,0E0,0E0,0E0,0E0,0E0,0E0,0E0,0E0,0E0,0E0,0E0,0E0,0E0,0E0,0E0],"parents":[2147483647,0,0,1,1,2,2,3,3,4,4,5,5,6,6,7,7,8,8,9,9,10,10,11,11,12,12,13,13],"right_children":[2,4,6,8,10,12,14,16,18,20,22,24,26,28,-1,-1,-1,-1,-1,-1,-1,-1,-1,-1,-1,-1,-1,-1,-1],"split_conditions":[2.4E1,1E-1,5.6E1,1E0,9.5E1,2.75E-1,1E0,6E0,5.5E1,1E0,6.3E1,1E0,1E0,3.4E0,-2.364575E-2,-2.2376029E-2,-1.5624184E-2,-1.18754245E-2,4.973133E-3,-6.9462154E-3,1.0559372E-2,1.1718216E-2,6.1069053E-2,1.5022968E-2,-2.4205107E-2,3.8702272E-2,-2.361353E-2,3.254644E-2,6.444037E-2],"split_indices":[3,1,6,3,4,1,19,4,6,5,6,19,19,2,0,0,0,0,0,0,0,0,0,0,0,0,0,0,0],"split_type":[0,0,0,0,0,0,0,0,0,0,0,0,0,0,0,0,0,0,0,0,0,0,0,0,0,0,0,0,0],"sum_hessian":[5.2392E4,3.3876E4,1.8516E4,2.8677E4,5.199E3,1.251E4,6.006E3,2.7041E4,1.636E3,4.879E3,3.2E2,7.913E3,4.597E3,5.702E3,3.04E2,2.1966E4,5.075E3,1.145E3,4.91E2,3.483E3,1.396E3,1.39E2,1.81E2,7.525E3,3.88E2,4.372E3,2.25E2,1.901E3,3.801E3],"tree_param":{"num_deleted":"0","num_feature":"20","num_nodes":"29","size_leaf_vector":"1"}},{"base_weights":[4.4067064E-3,-2.9644564E-1,7.1885324E-1,-4.0120843E-1,5.8461968E-2,4.7180572E-1,1.069916E0,-4.2928934E-1,-5.8784112E-2,-1.5062342E-2,5.768791E-1,3.7470812E-1,1.0568724E0,1.1459715E0,-2.2224816E-2,-2.1100707E-2,-1.2760336E-2,-5.19511E-3,5.664534E-2,-1.3297146E-2,3.5565093E-3,4.445719E-2,4.476E-3,7.855945E-3,2.7612193E-2,5.3201273E-2,-2.2690088E-2,4.7979727E-2,8.909802E-2],"categories":[],"categories_nodes":[],"categories_segments":[],"categories_sizes":[],"default_left":[0,0,0,0,0,0,0,0,0,0,0,0,0,0,0,0,0,0,0,0,0,0,0,0,0,0,0,0,0],"id":19,"left_children":[1,3,5,7,9,11,13,15,17,19,21,23,25,27,-1,-1,-1,-1,-1,-1,-1,-1,-1,-1,-1,-1,-1,-1,-1],"loss_changes":[1.126365E4,1.3710769E3,1.3462266E3,2.7373975E2,3.2037585E2,5.1747095E2,7.530249E2,8.151465E1,1.4135863E2,1.7894217E2,1.8546634E2,3.4527844E2,1.504541E2,5.71438E2,0E0,0E0,0E0,0E0,0E0,0E0,0E0,0E0,0E0,0E0,0E0,0E0,0E0,0E0,0E0],"parents":[2147483647,0,0,1,1,2,2,3,3,4,4,5,5,6,6,7,7,8,8,9,9,10,10,11,11,12,12,13,13],"right_children":[2,4,6,8,10,12,14,16,18,20,22,24,26,28,-1,-1,-1,-1,-1,-1,-1,-1,-1,-1,-1,-1,-1,-1,-1],"split_conditions":[6.8E1,7.5E-2,5.4E1,1E0,7E1,1E0,1E0,2.5E-2,1E0,4.6E1,1E0,1E0,1E0,8.5E1,-2.2224816E-2,-2.1100707E-2,-1.2760336E-2,-5.19511E-3,5.664534E-2,-1.3297146E-2,3.5565093E-3,4.445719E-2,4.476E-3,7.855945E-3,2.7612193E-2,5.3201273E-2,-2.2690088E-2,4.7979727E-2,8.909802E-2],"split_indices":[3,1,6,3,6,15,19,1,12,6,14,18,19,6,0,0,0,0,0,0,0,0,0,0,0,0,0,0,0],"split_type":[0,0,0,0,0,0,0,0,0,0,0,0,0,0,0,0,0,0,0,0,0,0,0,0,0,0,0,0,0],"sum_hessian":[5.2401E4,3.6874E4,1.5527E4,2.847E4,8.404E3,9.115E3,6.412E3,2.6312E4,2.158E3,7.361E3,1.043E3,7.819E3,1.296E3,6.111E3,3.01E2,2.3395E4,2.917E3,2.074E3,8.4E1,1.862E3,5.499E3,5.9E2,4.53E2,3.959E3,3.86E3,1.236E3,6E1,5.239E3,8.72E2],"tree_param":{"num_deleted":"0","num_feature":"20","num_nodes":"29","size_leaf_vector":"1"}},{"base_weights":[-4.510818E-3,-2.8057307E-1,6.6209424E-1,-3.7886253E-1,1.1632453E-1,4.5102364E-1,1.0227425E0,-4.3284944E-1,-2.583465E-1,-1.3785666E-1,3.2264593E-1,5.0382906E-1,-2.320213E-2,1.0985689E0,-2.1162981E-2,-2.093218E-2,-1.32979825E-2,-1.7251445E-2,-4.5498665E-3,-2.1980425E-2,-2.5676598E-3,1.8086262E-2,-3.2905214E-2,1.919518E-2,5.0451294E-2,4.449887E-2,7.5158335E-2],"categories":[],"categories_nodes":[],"categories_segments":[],"categories_sizes":[],"default_left":[0,0,0,0,0,0,0,0,0,0,0,0,0,0,0,0,0,0,0,0,0,0,0,0,0,0,0],"id":20,"left_children":[1,3,5,7,9,11,13,15,17,19,21,23,-1,25,-1,-1,-1,-1,-1,-1,-1,-1,-1,-1,-1,-1,-1],"loss_changes":[9.641965E3,1.445435E3,1.1675586E3,1.9310498E2,3.8576294E2,4.8318127E2,6.3312744E2,3.8354004E1,1.6134436E2,9.0445694E1,2.5841595E2,4.9791553E2,0E0,4.077627E2,0E0,0E0,0E0,0E0,0E0,0E0,0E0,0E0,0E0,0E0,0E0,0E0,0E0],"parents":[2147483647,0,0,1,1,2,2,3,3,4,4,5,5,6,6,7,7,8,8,9,9,10,10,11,11,13,13],"right_children":[2,4,6,8,10,12,14,16,18,20,22,24,-1,26,-1,-1,-1,-1,-1,-1,-1,-1,-1,-1,-1,-1,-1],"split_conditions":[7E1,1E-1,5.5E1,4.7E1,5.2E1,1E0,1E0,1.3E1,1.4761E4,1.1E1,1E0,1E0,-2.320213E-2,7E0,-2.1162981E-2,-2.093218E-2,-1.32979825E-2,-1.7251445E-2,-4.5498665E-3,-2.1980425E-2,-2.5676598E-3,1.8086262E-2,-3.2905214E-2,1.919518E-2,5.0451294E-2,4.449887E-2,7.5158335E-2],"split_indices":[3,1,6,6,6,19,19,4,0,4,19,15,0,5,0,0,0,0,0,0,0,0,0,0,0,0,0],"split_type":[0,0,0,0,0,0,0,0,0,0,0,0,0,0,0,0,0,0,0,0,0,0,0,0,0,0,0],"sum_hessian":[5.2393E4,3.705E4,1.5343E4,2.9696E4,7.354E3,9.68E3,5.663E3,2.0507E4,9.189E3,3.295E3,4.059E3,9.168E3,5.12E2,5.386E3,2.77E2,1.8925E4,1.582E3,5.492E3,3.697E3,6.63E2,2.632E3,3.827E3,2.32E2,7.854E3,1.314E3,4.135E3,1.251E3],"tree_param":{"num_deleted":"0","num_feature":"20","num_nodes":"27","size_leaf_vector":"1"}},{"base_weights":[7.4378187E-3,-2.7433923E-1,6.647479E-1,-3.490527E-1,1.0198572E-1,4.4169635E-1,1.0672157E0,-3.7743795E-1,6.375232E-3,-1.369956E-1,2.9772845E-1,4.900601E-1,-2.185134E-2,1.1514926E0,-2.0972408E-2,-1.9134106E-2,-1.1718328E-2,2.7579446E-3,-3.468731E-2,-1.6297411E-2,-8.464208E-4,1.6499676E-2,-2.808508E-2,1.6656108E-2,3.7805747E-2,4.8106655E-2,9.45915E-2],"categories":[],"categories_nodes":[],"categories_segments":[],"categories_sizes":[],"default_left":[0,0,0,0,0,0,0,0,0,0,0,0,0,0,0,0,0,0,0,0,0,0,0,0,0,0,0],"id":21,"left_children":[1,3,5,7,9,11,13,15,17,19,21,23,-1,25,-1,-1,-1,-1,-1,-1,-1,-1,-1,-1,-1,-1,-1],"loss_changes":[9.593018E3,1.0193447E3,1.3946606E3,3.051714E2,2.809946E2,4.3874646E2,7.0725635E2,1.0637329E2,8.718117E1,6.750619E1,1.5786087E2,4.046289E2,0E0,5.7624316E2,0E0,0E0,0E0,0E0,0E0,0E0,0E0,0E0,0E0,0E0,0E0,0E0,0E0],"parents":[2147483647,0,0,1,1,2,2,3,3,4,4,5,5,6,6,7,7,8,8,9,9,10,10,11,11,13,13],"right_children":[2,4,6,8,10,12,14,16,18,20,22,24,-1,26,-1,-1,-1,-1,-1,-1,-1,-1,-1,-1,-1,-1,-1],"split_conditions":[6.7E1,1E0,2.74181E5,1.6666667E-1,5.1E1,1E0,1E0,3.7424E4,1E0,9E0,1E0,4.9E0,-2.185134E-2,8.8E1,-2.0972408E-2,-1.9134106E-2,-1.1718328E-2,2.7579446E-3,-3.468731E-2,-1.6297411E-2,-8.464208E-4,1.6499676E-2,-2.808508E-2,1.6656108E-2,3.7805747E-2,4.8106655E-2,9.45915E-2],"split_indices":[3,3,0,1,6,19,19,0,19,4,19,2,0,6,0,0,0,0,0,0,0,0,0,0,0,0,0],"split_type":[0,0,0,0,0,0,0,0,0,0,0,0,0,0,0,0,0,0,0,0,0,0,0,0,0,0,0],"sum_hessian":[5.1792E4,3.6252E4,1.554E4,3.0247E4,6.005E3,1E4,5.54E3,2.801E4,2.237E3,2.704E3,3.301E3,9.494E3,5.06E2,5.248E3,2.92E2,2.2741E4,5.269E3,2.091E3,1.46E2,9.78E2,1.726E3,3.116E3,1.85E2,6.633E3,2.861E3,4.571E3,6.77E2],"tree_param":{"num_deleted":"0","num_feature":"20","num_nodes":"27","size_leaf_vector":"1"}},{"base_weights":[-2.7194573E-3,-3.0181244E-1,5.3106135E-1,-3.8367158E-1,-9.6854985E-2,1.8747073E-1,7.031712E-1,9.2322075E-1,-3.8584182E-1,-2.1160677E-1,1.1499701E-1,1.5375341E-1,1.6205597E0,7.620393E-1,-4.3880713E-1,1.4652094E-2,1.4075422E-1,-1.8432377E-2,-4.488164E-3,-8.905606E-3,-2.873571E-2,8.265728E-3,-3.3955798E-2,-3.3142178E-3,1.3017396E-2,6.470456E-2,1.5280384E-1,3.4541614E-2,1.3089529E-1,-2.9836241E-2,-2.0327557E-2],"categories":[],"categories_nodes":[],"categories_segments":[],"categories_sizes":[],"default_left":[0,0,0,0,0,0,0,0,0,0,0,0,0,0,0,0,0,0,0,0,0,0,0,0,0,0,0,0,0,0,0],"id":22,"left_children":[1,3,5,7,9,11,13,15,17,19,21,23,25,27,29,-1,-1,-1,-1,-1,-1,-1,-1,-1,-1,-1,-1,-1,-1,-1,-1],"loss_changes":[8.3490625E3,5.622825E2,1.1104297E3,6.8283936E1,2.326019E2,3.026684E2,8.414668E2,4.9734356E1,4.3953857E1,5.4780487E1,1.715079E2,1.6929742E2,5.2785217E1,6.505571E2,4.8433685E-1,0E0,0E0,0E0,0E0,0E0,0E0,0E0,0E0,0E0,0E0,0E0,0E0,0E0,0E0,0E0,0E0],"parents":[2147483647,0,0,1,1,2,2,3,3,4,4,5,5,6,6,7,7,8,8,9,9,10,10,11,11,12,12,13,13,14,14],"right_children":[2,4,6,8,10,12,14,16,18,20,22,24,26,28,30,-1,-1,-1,-1,-1,-1,-1,-1,-1,-1,-1,-1,-1,-1,-1,-1],"split_conditions":[6E-1,2.5E-2,4.6773E4,-3.3333335E-2,7.7747E4,1.1E1,1E0,5.5E1,1E0,1E0,1E0,1E-1,6.1E1,3.863555E6,2.3E1,1.4652094E-2,1.4075422E-1,-1.8432377E-2,-4.488164E-3,-8.905606E-3,-2.873571E-2,8.265728E-3,-3.3955798E-2,-3.3142178E-3,1.3017396E-2,6.470456E-2,1.5280384E-1,3.4541614E-2,1.3089529E-1,-2.9836241E-2,-2.0327557E-2],"split_indices":[2,1,0,1,0,2,19,6,3,19,19,1,6,0,3,0,0,0,0,0,0,0,0,0,0,0,0,0,0,0,0],"split_type":[0,0,0,0,0,0,0,0,0,0,0,0,0,0,0,0,0,0,0,0,0,0,0,0,0,0,0,0,0,0,0],"sum_hessian":[5.2294E4,3.3515E4,1.8779E4,2.3949E4,9.566E3,6.268E3,1.2511E4,3.9E1,2.391E4,6.205E3,3.361E3,6.125E3,1.43E2,1.1898E4,6.13E2,3.1E1,8E0,2.3399E4,5.11E2,5.881E3,3.24E2,3.134E3,2.27E2,2.172E3,3.953E3,1.26E2,1.7E1,1.1742E4,1.56E2,1.6E1,5.97E2],"tree_param":{"num_deleted":"0","num_feature":"20","num_nodes":"31","size_leaf_vector":"1"}},{"base_weights":[-9.511472E-3,-2.9275888E-1,5.016925E-1,-3.4538805E-1,-6.260299E-4,3.520422E-1,8.191947E-1,-3.6847854E-1,-2.2349048E-1,-7.176239E-3,5.628291E0,3.940844E-1,-2.0752229E-2,8.8474625E-1,-1.915149E-2,2.1588946E-2,-1.747676E-2,-9.42662E-3,-2.8980302E-2,-4.3857126E-3,1.3307583E-2,3.2800388E-1,-2.6420701E-2,4.7121923E-3,2.3988256E-2,-2.8675038E-3,4.4770602E-2],"categories":[],"categories_nodes":[],"categories_segments":[],"categories_sizes":[],"default_left":[0,0,0,0,0,0,0,0,0,0,0,0,0,0,0,0,0,0,0,0,0,0,0,0,0,0,0],"id":23,"left_children":[1,3,5,7,9,11,13,15,17,19,21,23,-1,25,-1,-1,-1,-1,-1,-1,-1,-1,-1,-1,-1,-1,-1],"loss_changes":[7.6063433E3,5.1969556E2,8.8960693E2,8.05354E1,1.9032947E2,4.2492834E2,4.827422E2,6.7293945E1,4.1005844E1,1.2896208E2,5.4084732E1,4.131349E2,0E0,3.653413E2,0E0,0E0,0E0,0E0,0E0,0E0,0E0,0E0,0E0,0E0,0E0,0E0,0E0],"parents":[2147483647,0,0,1,1,2,2,3,3,4,4,5,5,6,6,7,7,8,8,9,9,10,10,11,11,13,13],"right_children":[2,4,6,8,10,12,14,16,18,20,22,24,-1,26,-1,-1,-1,-1,-1,-1,-1,-1,-1,-1,-1,-1,-1],"split_conditions":[2.3E1,1E-1,2.84302E5,2.5E-2,8.3E0,1E0,1E0,0E0,1E0,1E-1,2.74181E5,1.9573E4,-2.0752229E-2,4.5E1,-1.915149E-2,2.1588946E-2,-1.747676E-2,-9.42662E-3,-2.8980302E-2,-4.3857126E-3,1.3307583E-2,3.2800388E-1,-2.6420701E-2,4.7121923E-3,2.3988256E-2,-2.8675038E-3,4.4770602E-2],"split_indices":[3,1,0,1,2,19,19,1,19,2,0,0,0,6,0,0,0,0,0,0,0,0,0,0,0,0,0],"split_type":[0,0,0,0,0,0,0,0,0,0,0,0,0,0,0,0,0,0,0,0,0,0,0,0,0,0,0],"sum_hessian":[5.2529E4,3.3801E4,1.8728E4,2.8641E4,5.16E3,1.273E4,5.998E3,2.4078E4,4.563E3,5.155E3,5E0,1.209E4,6.4E2,5.694E3,3.04E2,9.7E1,2.3981E4,4.313E3,2.5E2,3.976E3,1.179E3,4E0,1E0,3.429E3,8.661E3,3.81E2,5.313E3],"tree_param":{"num_deleted":"0","num_feature":"20","num_nodes":"27","size_leaf_vector":"1"}},{"base_weights":[2.004703E-3,-3.0280846E-1,4.607355E-1,-3.3704832E-1,-6.481969E-2,1.3207005E-1,6.380742E-1,-3.4072804E-1,2.738872E-1,-2.8563148E-1,9.4166085E-2,4.6688825E-2,4.155041E-1,6.95161E-1,-4.0853134E-1,-1.4915815E-2,-2.0101763E-2,1.9902176E-1,5.811653E-3,-2.0086328E-2,-9.4147185E-3,2.15677E-3,4.789674E-2,-4.65063E-3,1.0864197E-2,2.1501241E-2,-2.053626E-2,2.8149791E-2,5.7838354E-2,-2.8477037E-2,-1.8582521E-2],"categories":[],"categories_nodes":[],"categories_segments":[],"categories_sizes":[],"default_left":[0,0,0,0,0,0,0,0,0,0,0,0,0,0,0,0,0,0,0,0,0,0,0,0,0,0,0,0,0,0,0],"id":24,"left_children":[1,3,5,7,9,11,13,15,17,19,21,23,25,27,29,-1,-1,-1,-1,-1,-1,-1,-1,-1,-1,-1,-1,-1,-1,-1,-1],"loss_changes":[7.3124014E3,2.560022E2,1.2167344E3,6.184131E1,1.3880063E2,1.770758E2,8.104575E2,5.535742E1,9.765526E1,1.9927933E1,1.0260904E2,1.51139E2,6.0805115E1,6.618257E2,1.5835495E0,0E0,0E0,0E0,0E0,0E0,0E0,0E0,0E0,0E0,0E0,0E0,0E0,0E0,0E0,0E0,0E0],"parents":[2147483647,0,0,1,1,2,2,3,3,4,4,5,5,6,6,7,7,8,8,9,9,10,10,11,11,12,12,13,13,14,14],"right_children":[2,4,6,8,10,12,14,16,18,20,22,24,26,28,30,-1,-1,-1,-1,-1,-1,-1,-1,-1,-1,-1,-1,-1,-1,-1,-1],"split_conditions":[5E0,1E-1,4.5684E4,8.2E1,5E1,4.4E0,1E0,1E0,1.2038E4,1.7E1,9.2E1,1.5E-1,1E0,8.1E0,2.3E1,-1.4915815E-2,-2.0101763E-2,1.9902176E-1,5.811653E-3,-2.0086328E-2,-9.4147185E-3,2.15677E-3,4.789674E-2,-4.65063E-3,1.0864197E-2,2.1501241E-2,-2.053626E-2,2.8149791E-2,5.7838354E-2,-2.8477037E-2,-1.8582521E-2],"split_indices":[3,1,0,6,6,2,19,19,0,4,6,1,19,2,3,0,0,0,0,0,0,0,0,0,0,0,0,0,0,0,0],"split_type":[0,0,0,0,0,0,0,0,0,0,0,0,0,0,0,0,0,0,0,0,0,0,0,0,0,0,0,0,0,0,0],"sum_hessian":[5.2294E4,3.1418E4,2.0876E4,2.7466E4,3.952E3,7.317E3,1.3559E4,2.7302E4,1.64E2,1.654E3,2.298E3,5.624E3,1.693E3,1.2858E4,7.01E2,2.1523E4,5.779E3,5E0,1.59E2,6.2E2,1.034E3,2.185E3,1.13E2,3.143E3,2.481E3,1.614E3,7.9E1,1.0901E4,1.957E3,4.1E1,6.6E2],"tree_param":{"num_deleted":"0","num_feature":"20","num_nodes":"31","size_leaf_vector":"1"}},{"base_weights":[2.507156E-3,-2.2513649E-1,5.472438E-1,-3.0651605E-1,5.3869907E-2,4.2192686E-1,1.0818932E0,-3.5172474E-1,-2.2817765E-1,-9.009575E-2,2.669557E-1,3.4445572E-1,9.421857E-1,1.1506549E0,-1.6457604E-2,-1.6550902E-2,1.7019686E-1,-1.1222209E-2,1.4433669E-2,-2.949121E-3,-2.5784044E-2,1.4900145E-2,-2.9562965E-2,7.033976E-3,2.5667803E-2,4.708068E-2,-1.6950207E-2,4.7587216E-2,9.007432E-2],"categories":[],"categories_nodes":[],"categories_segments":[],"categories_sizes":[],"default_left":[0,0,0,0,0,0,0,0,0,0,0,0,0,0,0,0,0,0,0,0,0,0,0,0,0,0,0,0,0],"id":25,"left_children":[1,3,5,7,9,11,13,15,17,19,21,23,25,27,-1,-1,-1,-1,-1,-1,-1,-1,-1,-1,-1,-1,-1,-1,-1],"loss_changes":[6.4449536E3,8.322838E2,1.0258589E3,1.0042261E2,2.5396855E2,4.9990137E2,2.8675464E2,3.1447998E1,5.896814E1,6.1922302E1,1.4993962E2,4.2434497E2,1.2507556E2,2.9167236E2,0E0,0E0,0E0,0E0,0E0,0E0,0E0,0E0,0E0,0E0,0E0,0E0,0E0,0E0,0E0],"parents":[2147483647,0,0,1,1,2,2,3,3,4,4,5,5,6,6,7,7,8,8,9,9,10,10,11,11,12,12,13,13],"right_children":[2,4,6,8,10,12,14,16,18,20,22,24,26,28,-1,-1,-1,-1,-1,-1,-1,-1,-1,-1,-1,-1,-1,-1,-1],"split_conditions":[6.8E1,7.5E-2,6.3E1,1E0,5.5E1,1E0,1E0,1.06E2,3E0,1E0,1E0,1E0,1E0,1.02E2,-1.6457604E-2,-1.6550902E-2,1.7019686E-1,-1.1222209E-2,1.4433669E-2,-2.949121E-3,-2.5784044E-2,1.4900145E-2,-2.9562965E-2,7.033976E-3,2.5667803E-2,4.708068E-2,-1.6950207E-2,4.7587216E-2,9.007432E-2],"split_indices":[3,1,6,4,6,15,19,6,5,19,19,18,19,6,0,0,0,0,0,0,0,0,0,0,0,0,0,0,0],"split_type":[0,0,0,0,0,0,0,0,0,0,0,0,0,0,0,0,0,0,0,0,0,0,0,0,0,0,0,0,0],"sum_hessian":[5.1971E4,3.6654E4,1.5317E4,2.8377E4,8.277E3,1.241E4,2.907E3,1.7991E4,1.0386E4,4.94E3,3.337E3,1.0803E4,1.607E3,2.774E3,1.33E2,1.799E4,1E0,1.0185E4,2.01E2,4.663E3,2.77E2,3.161E3,1.76E2,5.496E3,5.307E3,1.537E3,7E1,2.352E3,4.22E2],"tree_param":{"num_deleted":"0","num_feature":"20","num_nodes":"29","size_leaf_vector":"1"}},{"base_weights":[9.964887E-3,-2.121011E-1,5.4682106E-1,-2.8931642E-1,3.5015363E-2,3.6730197E-1,8.0612504E-1,-3.273964E-1,-1.3190131E-1,-1.6034845E-1,2.4416889E-1,4.0971938E-1,-1.9840697E-2,8.6438495E-1,-1.6738478E-2,-1.4517976E-2,-1.8064793E-2,-5.148049E-3,-2.4869466E-2,-1.1284302E-2,2.288258E-3,1.3923842E-2,-2.833892E-2,1.0067681E-2,2.8021146E-2,2.9232763E-2,5.1832367E-2],"categories":[],"categories_nodes":[],"categories_segments":[],"categories_sizes":[],"default_left":[0,0,0,0,0,0,0,0,0,0,0,0,0,0,0,0,0,0,0,0,0,0,0,0,0,0,0],"id":26,"left_children":[1,3,5,7,9,11,13,15,17,19,21,23,-1,25,-1,-1,-1,-1,-1,-1,-1,-1,-1,-1,-1,-1,-1],"loss_changes":[6.2663066E3,7.094866E2,7.1564307E2,1.6977686E2,3.6178186E2,3.0456238E2,4.2629248E2,2.3923096E1,4.899012E1,7.632275E1,1.8883945E2,3.1439905E2,0E0,3.4558447E2,0E0,0E0,0E0,0E0,0E0,0E0,0E0,0E0,0E0,0E0,0E0,0E0,0E0],"parents":[2147483647,0,0,1,1,2,2,3,3,4,4,5,5,6,6,7,7,8,8,9,9,10,10,11,11,13,13],"right_children":[2,4,6,8,10,12,14,16,18,20,22,24,-1,26,-1,-1,-1,-1,-1,-1,-1,-1,-1,-1,-1,-1,-1],"split_conditions":[7E1,5.2E1,5.4E1,1.1E1,4.4719E4,1E0,1E0,1E0,1E0,1E-1,1E0,2.25E-1,-1.9840697E-2,1E0,-1.6738478E-2,-1.4517976E-2,-1.8064793E-2,-5.148049E-3,-2.4869466E-2,-1.1284302E-2,2.288258E-3,1.3923842E-2,-2.833892E-2,1.0067681E-2,2.8021146E-2,2.9232763E-2,5.1832367E-2],"split_indices":[3,6,6,4,0,19,19,19,19,2,19,1,0,18,0,0,0,0,0,0,0,0,0,0,0,0,0],"split_type":[0,0,0,0,0,0,0,0,0,0,0,0,0,0,0,0,0,0,0,0,0,0,0,0,0,0,0],"sum_hessian":[5.256E4,3.7181E4,1.5379E4,2.8329E4,8.852E3,9.089E3,6.29E3,2.281E4,5.519E3,4.577E3,4.275E3,8.626E3,4.63E2,5.99E3,3E2,1.7222E4,5.588E3,5.226E3,2.93E2,3.313E3,1.264E3,4.028E3,2.47E2,4.212E3,4.414E3,2.972E3,3.018E3],"tree_param":{"num_deleted":"0","num_feature":"20","num_nodes":"27","size_leaf_vector":"1"}},{"base_weights":[7.0447936E-3,-2.0024249E-1,5.002622E-1,-2.7566984E-1,5.9856262E-2,5.4665625E-1,-3.7715706E-1,-2.9284927E-1,-4.7686096E-2,9.591624E-2,-5.3427076E-1,3.0285504E-1,7.244389E-1,-2.0040348E-2,-1.6748654E-2,-1.5015757E-2,-1.0342636E-2,-5.926211E-3,1.3005136E-2,-1.6891672E-3,1.3546874E-2,-2.7761417E-2,-1.8717827E-2,1.3357769E-2,1.1194306E-1,2.3306455E-2,4.5134485E-2],"categories":[],"categories_nodes":[],"categories_segments":[],"categories_sizes":[],"default_left":[0,0,0,0,0,0,0,0,0,0,0,0,0,0,0,0,0,0,0,0,0,0,0,0,0,0,0],"id":27,"left_children":[1,3,5,7,9,11,13,15,17,19,21,23,25,-1,-1,-1,-1,-1,-1,-1,-1,-1,-1,-1,-1,-1,-1],"loss_changes":[5.348358E3,7.2262695E2,6.3035156E2,1.1181763E2,1.7746513E2,6.37062E2,6.448746E-1,5.1409668E1,5.095256E1,1.9800484E2,3.4008942E0,2.397492E2,4.578628E2,0E0,0E0,0E0,0E0,0E0,0E0,0E0,0E0,0E0,0E0,0E0,0E0,0E0,0E0],"parents":[2147483647,0,0,1,1,2,2,3,3,4,4,5,5,6,6,7,7,8,8,9,9,10,10,11,11,12,12],"right_children":[2,4,6,8,10,12,14,16,18,20,22,24,26,-1,-1,-1,-1,-1,-1,-1,-1,-1,-1,-1,-1,-1,-1],"split_conditions":[6.8E1,6.666667E-2,1E0,1E0,1E0,2.25E-1,4.5684E4,4.7E1,5.9E1,3.7E1,1.8E1,1.05E2,1E0,-2.0040348E-2,-1.6748654E-2,-1.5015757E-2,-1.0342636E-2,-5.926211E-3,1.3005136E-2,-1.6891672E-3,1.3546874E-2,-2.7761417E-2,-1.8717827E-2,1.3357769E-2,1.1194306E-1,2.3306455E-2,4.5134485E-2],"split_indices":[3,1,19,5,19,1,0,6,6,4,3,6,18,0,0,0,0,0,0,0,0,0,0,0,0,0,0],"split_type":[0,0,0,0,0,0,0,0,0,0,0,0,0,0,0,0,0,0,0,0,0,0,0,0,0,0,0],"sum_hessian":[5.2311E4,3.6832E4,1.5479E4,2.8552E4,8.28E3,1.4702E4,7.77E2,2.6551E4,2.001E3,7.807E3,4.73E2,6.201E3,8.501E3,2.25E2,5.52E2,1.9436E4,7.115E3,1.612E3,3.89E2,4.632E3,3.175E3,3.32E2,1.41E2,6.147E3,5.4E1,4.319E3,4.182E3],"tree_param":{"num_deleted":"0","num_feature":"20","num_nodes":"27","size_leaf_vector":"1"}},{"base_weights":[2.3050478E-3,-1.9053908E-1,4.7380865E-1,-2.790689E-1,2.2606613E-2,3.767007E-1,8.795639E-1,-3.010598E-1,-1.8058065E-1,-1.2585302E-1,2.6595584E-1,3.0595055E-1,8.4881085E-1,5.6740725E-1,1.1756016E0,-1.4202252E-2,4.2852934E-2,-7.718679E-3,-2.2627115E-2,-1.0033035E-2,3.8532435E-4,1.4752782E-2,-2.4644177E-2,1.3631866E-2,1.0635823E-1,4.2362202E-2,-1.4656491E-2,3.6182586E-2,1.1874989E-2,4.312034E-2,7.9241544E-2],"categories":[],"categories_nodes":[],"categories_segments":[],"categories_sizes":[],"default_left":[0,0,0,0,0,0,0,0,0,0,0,0,0,0,0,0,0,0,0,0,0,0,0,0,0,0,0,0,0,0,0],"id":28,"left_children":[1,3,5,7,9,11,13,15,17,19,21,23,25,27,29,-1,-1,-1,-1,-1,-1,-1,-1,-1,-1,-1,-1,-1,-1,-1,-1],"loss_changes":[4.766923E3,7.0211194E2,5.9928906E2,5.6883545E1,3.945462E2,4.099486E2,2.7083374E2,2.9354858E1,2.3541306E1,7.966824E1,1.5691852E2,3.3195294E2,9.7799194E1,9.1046875E1,1.9700879E2,0E0,0E0,0E0,0E0,0E0,0E0,0E0,0E0,0E0,0E0,0E0,0E0,0E0,0E0,0E0,0E0],"parents":[2147483647,0,0,1,1,2,2,3,3,4,4,5,5,6,6,7,7,8,8,9,9,10,10,11,11,12,12,13,13,14,14],"right_children":[2,4,6,8,10,12,14,16,18,20,22,24,26,28,30,-1,-1,-1,-1,-1,-1,-1,-1,-1,-1,-1,-1,-1,-1,-1,-1],"split_conditions":[7.1E1,5E1,6.2E1,1.1E1,1.25E-1,1E0,1E0,6E0,1E0,2.2805E4,1E0,1.45E1,1E0,7.9E1,8.3E1,-1.4202252E-2,4.2852934E-2,-7.718679E-3,-2.2627115E-2,-1.0033035E-2,3.8532435E-4,1.4752782E-2,-2.4644177E-2,1.3631866E-2,1.0635823E-1,4.2362202E-2,-1.4656491E-2,3.6182586E-2,1.1874989E-2,4.312034E-2,7.9241544E-2],"split_indices":[3,6,6,4,1,15,18,5,19,0,19,2,19,6,6,0,0,0,0,0,0,0,0,0,0,0,0,0,0,0,0],"split_type":[0,0,0,0,0,0,0,0,0,0,0,0,0,0,0,0,0,0,0,0,0,0,0,0,0,0,0,0,0,0,0],"sum_hessian":[5.2424E4,3.7207E4,1.5217E4,2.6288E4,1.0919E4,1.228E4,2.937E3,2.1488E4,4.8E3,6.782E3,4.137E3,1.0681E4,1.599E3,1.431E3,1.506E3,2.1469E4,1.9E1,4.554E3,2.46E2,4.101E3,2.681E3,3.901E3,2.36E2,1.0596E4,8.5E1,1.53E3,6.9E1,8.7E2,5.61E2,1.002E3,5.04E2],"tree_param":{"num_deleted":"0","num_feature":"20","num_nodes":"31","size_leaf_vector":"1"}},{"base_weights":[-9.8750945E-3,-1.8948108E-1,4.3876258E-1,-2.5162348E-1,5.4222606E-2,2.8241304E-1,7.124229E-1,-2.7531645E-1,-8.928293E-2,-1.5729085E-3,6.810936E-1,2.1337496E-1,6.9618076E-1,7.6779985E-1,-1.6312167E-2,-1.3549556E-2,-7.2665014E-3,-8.3932895E-3,8.125029E-3,-1.8537594E-3,2.6312968E-2,1.1787382E-2,5.027611E-2,6.4149396E-3,2.4960844E-2,3.5335682E-2,-1.3941328E-2,3.347051E-2,8.6399525E-2],"categories":[],"categories_nodes":[],"categories_segments":[],"categories_sizes":[],"default_left":[0,0,0,0,0,0,0,0,0,0,0,0,0,0,0,0,0,0,0,0,0,0,0,0,0,0,0,0,0],"id":29,"left_children":[1,3,5,7,9,11,13,15,17,19,21,23,25,27,-1,-1,-1,-1,-1,-1,-1,-1,-1,-1,-1,-1,-1,-1,-1],"loss_changes":[4.2190674E3,5.662755E2,6.402722E2,1.1457312E2,2.6575323E2,2.720257E2,3.195559E2,4.0665894E1,8.8894936E1,1.4837726E2,1.0357443E2,1.9942682E2,7.5462585E1,3.0686353E2,0E0,0E0,0E0,0E0,0E0,0E0,0E0,0E0,0E0,0E0,0E0,0E0,0E0,0E0,0E0],"parents":[2147483647,0,0,1,1,2,2,3,3,4,4,5,5,6,6,7,7,8,8,9,9,10,10,11,11,12,12,13,13],"right_children":[2,4,6,8,10,12,14,16,18,20,22,24,26,28,-1,-1,-1,-1,-1,-1,-1,-1,-1,-1,-1,-1,-1,-1,-1],"split_conditions":[7.2E1,2.4E1,5.5E1,5.4E1,7.9E1,1E0,1E0,1.1E1,5.1562E4,4.4E0,1E0,3.75E-1,1E0,3.032954E6,-1.6312167E-2,-1.3549556E-2,-7.2665014E-3,-8.3932895E-3,8.125029E-3,-1.8537594E-3,2.6312968E-2,1.1787382E-2,5.027611E-2,6.4149396E-3,2.4960844E-2,3.5335682E-2,-1.3941328E-2,3.347051E-2,8.6399525E-2],"split_indices":[3,4,6,6,6,15,19,4,0,2,18,1,19,0,0,0,0,0,0,0,0,0,0,0,0,0,0,0,0],"split_type":[0,0,0,0,0,0,0,0,0,0,0,0,0,0,0,0,0,0,0,0,0,0,0,0,0,0,0,0,0],"sum_hessian":[5.2358E4,3.739E4,1.4968E4,2.9793E4,7.597E3,9.527E3,5.441E3,2.5998E4,3.795E3,6.977E3,6.2E2,8.166E3,1.361E3,5.171E3,2.7E2,2.3474E4,2.524E3,2.831E3,9.64E2,6.537E3,4.4E2,2.95E2,3.25E2,6.576E3,1.59E3,1.289E3,7.2E1,4.917E3,2.54E2],"tree_param":{"num_deleted":"0","num_feature":"20","num_nodes":"29","size_leaf_vector":"1"}},{"base_weights":[-2.9324691E-3,-2.1953501E-1,3.3300772E-1,-2.5029007E-1,5.4869973E-3,2.1196826E-1,7.071556E-1,-2.5137326E-1,1.6525364E0,-2.0923741E-2,1.4388599E0,1.13868676E-1,4.860456E-1,7.681571E-1,-1.6690742E-2,2.183798E-2,-1.1932839E-2,-3.497287E-2,2.712348E-1,-1.1755506E-2,3.8731669E-3,1.5664998E-1,3.5510056E-2,3.1933398E-3,3.270267E-2,2.5097804E-2,-1.7493675E-2,3.271959E-2,8.034858E-2],"categories":[],"categories_nodes":[],"categories_segments":[],"categories_sizes":[],"default_left":[0,0,0,0,0,0,0,0,0,0,0,0,0,0,0,0,0,0,0,0,0,0,0,0,0,0,0,0,0],"id":30,"left_children":[1,3,5,7,9,11,13,15,17,19,21,23,25,27,-1,-1,-1,-1,-1,-1,-1,-1,-1,-1,-1,-1,-1,-1,-1],"loss_changes":[3.7942844E3,2.1940393E2,9.255547E2,5.7901978E1,1.4437671E2,4.1523926E2,3.2401685E2,5.0354736E1,1.6222E2,8.871311E1,8.6788666E1,3.0398114E2,1.6773419E2,3.190503E2,0E0,0E0,0E0,0E0,0E0,0E0,0E0,0E0,0E0,0E0,0E0,0E0,0E0,0E0,0E0],"parents":[2147483647,0,0,1,1,2,2,3,3,4,4,5,5,6,6,7,7,8,8,9,9,10,10,11,11,12,12,13,13],"right_children":[2,4,6,8,10,12,14,16,18,20,22,24,26,28,-1,-1,-1,-1,-1,-1,-1,-1,-1,-1,-1,-1,-1,-1,-1],"split_conditions":[1E0,1.25E-1,3.75E-1,6E0,1.01E2,4.7E0,1E0,0E0,5.3E1,3.2222E4,4.4E1,1E0,1E0,1E2,-1.6690742E-2,2.183798E-2,-1.1932839E-2,-3.497287E-2,2.712348E-1,-1.1755506E-2,3.8731669E-3,1.5664998E-1,3.5510056E-2,3.1933398E-3,3.270267E-2,2.5097804E-2,-1.7493675E-2,3.271959E-2,8.034858E-2],"split_indices":[5,1,1,2,6,2,19,1,6,0,4,15,19,6,0,0,0,0,0,0,0,0,0,0,0,0,0,0,0],"split_type":[0,0,0,0,0,0,0,0,0,0,0,0,0,0,0,0,0,0,0,0,0,0,0,0,0,0,0,0,0],"sum_hessian":[5.2142E4,3.1702E4,2.044E4,2.789E4,3.812E3,1.5445E4,4.995E3,2.7875E4,1.5E1,3.744E3,6.8E1,1.1375E4,4.07E3,4.724E3,2.71E2,9.7E1,2.7778E4,1E1,5E0,1.163E3,2.581E3,1.7E1,5.1E1,1.0544E4,8.31E2,3.855E3,2.15E2,4.39E3,3.34E2],"tree_param":{"num_deleted":"0","num_feature":"20","num_nodes":"29","size_leaf_vector":"1"}},{"base_weights":[-1.7634138E-3,-1.6791542E-1,4.1153306E-1,-2.2853644E-1,6.631112E-2,3.1030452E-1,8.598912E-1,-2.6510942E-1,-1.1807889E-1,2.2695363E-2,6.290159E-1,-6.580297E-3,3.9580962E-1,7.7143824E-1,1.6589519E0,-1.2506752E-2,2.508255E-2,-8.42465E-3,1.0535429E-2,2.7024844E-3,-2.4262385E-2,2.3226792E-3,4.0358E-2,-6.106186E-3,6.915912E-3,2.0549713E-2,-1.7396662E-2,3.8651213E-2,-1.4519821E-2,1.0358698E-1,3.9765082E-2],"categories":[],"categories_nodes":[],"categories_segments":[],"categories_sizes":[],"default_left":[0,0,0,0,0,0,0,0,0,0,0,0,0,0,0,0,0,0,0,0,0,0,0,0,0,0,0,0,0,0,0],"id":31,"left_children":[1,3,5,7,9,11,13,15,17,19,21,23,25,27,29,-1,-1,-1,-1,-1,-1,-1,-1,-1,-1,-1,-1,-1,-1,-1,-1],"loss_changes":[3.5996836E3,5.309037E2,6.819397E2,1.1995776E2,1.8867075E2,3.3229907E2,1.9436047E2,1.7816895E1,1.5474455E2,1.3387685E2,7.356915E1,4.944917E1,3.065564E2,1.3747668E2,1.1997247E2,0E0,0E0,0E0,0E0,0E0,0E0,0E0,0E0,0E0,0E0,0E0,0E0,0E0,0E0,0E0,0E0],"parents":[2147483647,0,0,1,1,2,2,3,3,4,4,5,5,6,6,7,7,8,8,9,9,10,10,11,11,12,12,13,13,14,14],"right_children":[2,4,6,8,10,12,14,16,18,20,22,24,26,28,30,-1,-1,-1,-1,-1,-1,-1,-1,-1,-1,-1,-1,-1,-1,-1,-1],"split_conditions":[7.4E1,2.4E1,6.3E1,4.9E1,4.8E0,2.1776E4,3.032954E6,9.70286E5,6.5003E4,1E0,6.3149E4,4.9E1,1E0,1E0,1E0,-1.2506752E-2,2.508255E-2,-8.42465E-3,1.0535429E-2,2.7024844E-3,-2.4262385E-2,2.3226792E-3,4.0358E-2,-6.106186E-3,6.915912E-3,2.0549713E-2,-1.7396662E-2,3.8651213E-2,-1.4519821E-2,1.0358698E-1,3.9765082E-2],"split_indices":[3,4,6,6,2,0,0,0,0,19,0,6,19,19,14,0,0,0,0,0,0,0,0,0,0,0,0,0,0,0,0],"split_type":[0,0,0,0,0,0,0,0,0,0,0,0,0,0,0,0,0,0,0,0,0,0,0,0,0,0,0,0,0,0,0],"sum_hessian":[5.2418E4,3.7388E4,1.503E4,2.9701E4,7.687E3,1.2263E4,2.767E3,2.2312E4,7.389E3,7.135E3,5.52E2,2.606E3,9.657E3,2.493E3,2.74E2,2.2285E4,2.7E1,6.269E3,1.12E3,6.703E3,4.32E2,1.57E2,3.95E2,1.446E3,1.16E3,9.162E3,4.95E2,2.381E3,1.12E2,1.63E2,1.11E2],"tree_param":{"num_deleted":"0","num_feature":"20","num_nodes":"31","size_leaf_vector":"1"}},{"base_weights":[-5.353713E-3,-2.0103465E-1,2.9516572E-1,-2.3329319E-1,-1.1533296E-2,1.6646737E-1,5.737163E-1,-2.7008456E-1,-1.8752585E-1,-2.9462108E-2,1.7648392E0,6.650396E-2,4.2601842E-1,3.5799742E-1,7.986694E-1,-1.2623425E-2,-3.9400056E-2,-4.5435224E-2,-8.518853E-3,-2.22898E-3,4.3059554E-2,3.7892994E-2,1.5757602E-1,-3.401406E-3,8.536203E-3,2.2078978E-2,-1.6561577E-2,1.420745E-2,5.2152637E-2,3.2398086E-2,7.428658E-2],"categories":[],"categories_nodes":[],"categories_segments":[],"categories_sizes":[],"default_left":[0,0,0,0,0,0,0,0,0,0,0,0,0,0,0,0,0,0,0,0,0,0,0,0,0,0,0,0,0,0,0],"id":32,"left_children":[1,3,5,7,9,11,13,15,17,19,21,23,25,27,29,-1,-1,-1,-1,-1,-1,-1,-1,-1,-1,-1,-1,-1,-1,-1,-1],"loss_changes":[3.0710808E3,1.9334668E2,7.382146E2,4.5460327E1,1.4661766E2,3.6549344E2,3.1552515E2,1.2552612E1,5.8719116E1,7.7449646E1,6.731419E1,1.6263133E2,1.3354877E2,1.388551E2,2.7122534E2,0E0,0E0,0E0,0E0,0E0,0E0,0E0,0E0,0E0,0E0,0E0,0E0,0E0,0E0,0E0,0E0],"parents":[2147483647,0,0,1,1,2,2,3,3,4,4,5,5,6,6,7,7,8,8,9,9,10,10,11,11,12,12,13,13,14,14],"right_children":[2,4,6,8,10,12,14,16,18,20,22,24,26,28,30,-1,-1,-1,-1,-1,-1,-1,-1,-1,-1,-1,-1,-1,-1,-1,-1],"split_conditions":[1E0,8.823E4,3.25E-1,5.539E3,5.7E0,4.4E0,1E0,6.8E1,0E0,1.04E2,7.2E1,1.25E-1,1E0,7.3333335E-1,8.3E1,-1.2623425E-2,-3.9400056E-2,-4.5435224E-2,-8.518853E-3,-2.22898E-3,4.3059554E-2,3.7892994E-2,1.5757602E-1,-3.401406E-3,8.536203E-3,2.2078978E-2,-1.6561577E-2,1.420745E-2,5.2152637E-2,3.2398086E-2,7.428658E-2],"split_indices":[5,0,1,0,2,2,18,3,5,6,4,1,19,1,6,0,0,0,0,0,0,0,0,0,0,0,0,0,0,0,0],"split_type":[0,0,0,0,0,0,0,0,0,0,0,0,0,0,0,0,0,0,0,0,0,0,0,0,0,0,0,0,0,0,0],"sum_hessian":[5.2222E4,3.1628E4,2.0594E4,2.7027E4,4.601E3,1.4087E4,6.507E3,1.498E4,1.2047E4,4.556E3,4.5E1,1.0171E4,3.916E3,3.323E3,3.184E3,1.4942E4,3.8E1,9.5E1,1.1952E4,4.472E3,8.4E1,2.9E1,1.6E1,4.61E3,5.561E3,3.708E3,2.08E2,3.095E3,2.28E2,2.795E3,3.89E2],"tree_param":{"num_deleted":"0","num_feature":"20","num_nodes":"31","size_leaf_vector":"1"}},{"base_weights":[1.4384254E-3,-1.9313909E-1,3.0466825E-1,-2.1837464E-1,5.765245E-2,1.9593707E-1,6.8139213E-1,-2.1950302E-1,2.3068953E0,4.7203895E-2,2.5770457E0,9.955533E-2,4.622392E-1,4.3293107E-1,9.866997E-1,-1.1229432E-2,-6.3701267E-3,3.223786E-2,2.717836E-1,1.1718397E-3,6.3076675E-2,3.830881E-1,3.041894E-2,2.7011498E-3,3.4271397E-2,1.8654797E-2,4.6360776E-2,-1.7979074E-2,2.2881333E-2,4.9658965E-2,-1.68637E-2],"categories":[],"categories_nodes":[],"categories_segments":[],"categories_sizes":[],"default_left":[0,0,0,0,0,0,0,0,0,0,0,0,0,0,0,0,0,0,0,0,0,0,0,0,0,0,0,0,0,0,0],"id":33,"left_children":[1,3,5,7,9,11,13,15,17,19,21,23,25,27,29,-1,-1,-1,-1,-1,-1,-1,-1,-1,-1,-1,-1,-1,-1,-1,-1],"loss_changes":[3.0822488E3,2.0140332E2,8.362622E2,8.2890015E1,7.648127E1,4.066936E2,3.464668E2,4.7096558E1,6.927703E1,8.356746E1,1.23802E2,3.083049E2,1.4380432E2,1.1109296E2,1.9320532E2,0E0,0E0,0E0,0E0,0E0,0E0,0E0,0E0,0E0,0E0,0E0,0E0,0E0,0E0,0E0,0E0],"parents":[2147483647,0,0,1,1,2,2,3,3,4,4,5,5,6,6,7,7,8,8,9,9,10,10,11,11,12,12,13,13,14,14],"right_children":[2,4,6,8,10,12,14,16,18,20,22,24,26,28,30,-1,-1,-1,-1,-1,-1,-1,-1,-1,-1,-1,-1,-1,-1,-1,-1],"split_conditions":[1E0,1.75E-1,4.3199E5,6.7E0,1.23E2,4.7E0,6.2E1,2.5E-2,4.5E1,1.39E2,1.25E2,1E0,8.5E1,4.3E1,1E0,-1.1229432E-2,-6.3701267E-3,3.223786E-2,2.717836E-1,1.1718397E-3,6.3076675E-2,3.830881E-1,3.041894E-2,2.7011498E-3,3.4271397E-2,1.8654797E-2,4.6360776E-2,-1.7979074E-2,2.2881333E-2,4.9658965E-2,-1.68637E-2],"split_indices":[5,1,0,2,6,2,6,1,4,4,6,15,4,6,19,0,0,0,0,0,0,0,0,0,0,0,0,0,0,0,0],"split_type":[0,0,0,0,0,0,0,0,0,0,0,0,0,0,0,0,0,0,0,0,0,0,0,0,0,0,0,0,0,0,0],"sum_hessian":[5.2238E4,3.182E4,2.0418E4,2.8911E4,2.909E3,1.5846E4,4.572E3,2.8899E4,1.2E1,2.898E3,1.1E1,1.1636E4,4.21E3,2.522E3,2.05E3,2.3469E4,5.43E3,9E0,3E0,2.85E3,4.8E1,2E0,9E0,1.0908E4,7.28E2,3.745E3,4.65E2,1.56E2,2.366E3,1.949E3,1.01E2],"tree_param":{"num_deleted":"0","num_feature":"20","num_nodes":"31","size_leaf_vector":"1"}},{"base_weights":[-2.5402529E-3,-1.7901993E-1,3.0876872E-1,-2.0677179E-1,8.228869E-2,1.9891499E-1,6.139588E-1,-2.3164563E-1,-1.3157788E-1,1.2110921E-1,-5.196535E-1,1.5539327E-1,6.427111E-1,4.3055588E-1,9.306744E-1,-1.0176897E-2,-1.3081584E-2,-7.916205E-3,5.3940206E-3,3.2102452E-3,2.9284872E-2,-2.240764E-2,-3.8438536E-2,8.734939E-3,-1.842429E-2,1.8894171E-2,4.6150073E-2,2.2404388E-2,-1.7189264E-2,3.4736883E-2,7.107701E-2],"categories":[],"categories_nodes":[],"categories_segments":[],"categories_sizes":[],"default_left":[0,0,0,0,0,0,0,0,0,0,0,0,0,0,0,0,0,0,0,0,0,0,0,0,0,0,0,0,0,0,0],"id":34,"left_children":[1,3,5,7,9,11,13,15,17,19,21,23,25,27,29,-1,-1,-1,-1,-1,-1,-1,-1,-1,-1,-1,-1,-1,-1,-1,-1],"loss_changes":[2.8677432E3,2.4159619E2,6.330215E2,5.629541E1,7.481624E1,2.6814355E2,2.8991565E2,1.5908447E1,6.799753E1,7.9638245E1,2.091507E0,2.1095523E2,1.0085034E2,1.1651483E2,2.0302258E2,0E0,0E0,0E0,0E0,0E0,0E0,0E0,0E0,0E0,0E0,0E0,0E0,0E0,0E0,0E0,0E0],"parents":[2147483647,0,0,1,1,2,2,3,3,4,4,5,5,6,6,7,7,8,8,9,9,10,10,11,11,12,12,13,13,14,14],"right_children":[2,4,6,8,10,12,14,16,18,20,22,24,26,28,30,-1,-1,-1,-1,-1,-1,-1,-1,-1,-1,-1,-1,-1,-1,-1,-1],"split_conditions":[6E-1,1.6666667E-1,3.75E-1,4.9E1,1E0,8.6E0,4E0,1E0,1E0,7.6E1,9.9E1,1E0,2.25E-1,1E0,1.196441E6,-1.0176897E-2,-1.3081584E-2,-7.916205E-3,5.3940206E-3,3.2102452E-3,2.9284872E-2,-2.240764E-2,-3.8438536E-2,8.734939E-3,-1.842429E-2,1.8894171E-2,4.6150073E-2,2.2404388E-2,-1.7189264E-2,3.4736883E-2,7.107701E-2],"split_indices":[2,1,1,6,19,2,5,19,3,6,4,19,1,19,0,0,0,0,0,0,0,0,0,0,0,0,0,0,0,0,0],"split_type":[0,0,0,0,0,0,0,0,0,0,0,0,0,0,0,0,0,0,0,0,0,0,0,0,0,0,0,0,0,0,0],"sum_hessian":[5.2196E4,3.3312E4,1.8884E4,3.0114E4,3.198E3,1.3887E4,4.997E3,2.2627E4,7.487E3,3.005E3,1.93E2,1.2648E4,1.239E3,3.166E3,1.831E3,1.7097E4,5.53E3,6.513E3,9.74E2,2.72E3,2.85E2,1.71E2,2.2E1,1.1982E4,6.66E2,7.26E2,5.13E2,2.993E3,1.73E2,1.379E3,4.52E2],"tree_param":{"num_deleted":"0","num_feature":"20","num_nodes":"31","size_leaf_vector":"1"}},{"base_weights":[-6.282512E-3,-1.783365E-1,2.6085225E-1,-1.813769E-1,1.4297199E0,3.5690352E-2,3.7043345E-1,-1.8463874E-1,1.1423255E0,3.4550958E0,6.778147E-1,3.236145E-2,3.500204E-1,1.8511051E-1,5.5670255E-1,-1.0258075E-2,-3.973552E-3,1.1133526E-1,6.6143475E-3,1.7097728E-2,3.4675068E-1,6.271804E-2,-9.854547E-3,-1.5437877E-4,2.6094707E-2,7.880173E-3,5.6962967E-2,2.856622E-2,-1.8151084E-2],"categories":[],"categories_nodes":[],"categories_segments":[],"categories_sizes":[],"default_left":[0,0,0,0,0,0,0,0,0,0,0,0,0,0,0,0,0,0,0,0,0,0,0,0,0,0,0,0,0],"id":35,"left_children":[1,3,5,7,9,11,13,15,17,19,21,23,-1,25,27,-1,-1,-1,-1,-1,-1,-1,-1,-1,-1,-1,-1,-1,-1],"loss_changes":[2.3979548E3,1.5541174E2,5.0428882E2,1.36974E2,8.9031525E1,1.648662E2,4.7447705E2,1.06309326E2,9.548698E1,1.9133087E2,2.6502806E1,1.2468596E2,0E0,1.2329184E2,3.305017E2,0E0,0E0,0E0,0E0,0E0,0E0,0E0,0E0,0E0,0E0,0E0,0E0,0E0,0E0],"parents":[2147483647,0,0,1,1,2,2,3,3,4,4,5,5,6,6,7,7,8,8,9,9,10,10,11,11,13,13,14,14],"right_children":[2,4,6,8,10,12,14,16,18,20,22,24,-1,26,28,-1,-1,-1,-1,-1,-1,-1,-1,-1,-1,-1,-1,-1,-1],"split_conditions":[1E0,5.7E0,1.3333334E-1,1.04E2,6.3E0,1.3E2,1E0,3.3744E4,6.99172E5,5.3E1,2.18328E5,8.3E0,3.500204E-1,1.17E2,1E0,-1.0258075E-2,-3.973552E-3,1.1133526E-1,6.6143475E-3,1.7097728E-2,3.4675068E-1,6.271804E-2,-9.854547E-3,-1.5437877E-4,2.6094707E-2,7.880173E-3,5.6962967E-2,2.856622E-2,-1.8151084E-2],"split_indices":[5,2,1,6,2,6,18,0,0,6,0,2,0,6,19,0,0,0,0,0,0,0,0,0,0,0,0,0,0],"split_type":[0,0,0,0,0,0,0,0,0,0,0,0,0,0,0,0,0,0,0,0,0,0,0,0,0,0,0,0,0],"sum_hessian":[5.2171E4,3.1733E4,2.0438E4,3.1674E4,5.9E1,6.691E3,1.3747E4,3.1597E4,7.7E1,1.5E1,4.4E1,6.689E3,2E0,6.892E3,6.855E3,2.3652E4,7.945E3,3.4E1,4.3E1,9E0,6E0,2.5E1,1.9E1,6.263E3,4.26E2,6.778E3,1.14E2,6.503E3,3.52E2],"tree_param":{"num_deleted":"0","num_feature":"20","num_nodes":"29","size_leaf_vector":"1"}},{"base_weights":[-1.57861E-4,-1.6710591E-1,2.6313215E-1,-2.0916437E-1,-4.848224E-2,-3.670104E-2,3.5657665E-1,5.8905816E-1,-2.106189E-1,-6.726041E-2,9.2972654E-1,-4.5504037E-2,1.5800602E0,3.966806E-1,-3.6936912E-1,1.4290894E-2,1.2662831E-1,-9.926941E-3,7.297294E-2,-3.4536861E-3,1.4620258E-1,1.6905153E-1,2.5213199E-2,-2.23563E-3,2.3013334E-1,2.9050383E-1,4.4138424E-2,1.0320243E-2,2.6944654E-2,-2.6920974E-2,-1.6638014E-2],"categories":[],"categories_nodes":[],"categories_segments":[],"categories_sizes":[],"default_left":[0,0,0,0,0,0,0,0,0,0,0,0,0,0,0,0,0,0,0,0,0,0,0,0,0,0,0,0,0,0,0],"id":36,"left_children":[1,3,5,7,9,11,13,15,17,19,21,23,25,27,29,-1,-1,-1,-1,-1,-1,-1,-1,-1,-1,-1,-1,-1,-1,-1,-1],"loss_changes":[2.286051E3,1.5877881E2,5.654396E2,2.7403687E1,1.5311278E2,6.8330215E1,4.4808362E2,2.4979233E1,2.4835815E1,1.6190167E2,1.6274947E2,4.886413E1,7.0866936E1,4.5593555E2,2.3170242E0,0E0,0E0,0E0,0E0,0E0,0E0,0E0,0E0,0E0,0E0,0E0,0E0,0E0,0E0,0E0,0E0],"parents":[2147483647,0,0,1,1,2,2,3,3,4,4,5,5,6,6,7,7,8,8,9,9,10,10,11,11,12,12,13,13,14,14],"right_children":[2,4,6,8,10,12,14,16,18,20,22,24,26,28,30,-1,-1,-1,-1,-1,-1,-1,-1,-1,-1,-1,-1,-1,-1,-1,-1],"split_conditions":[1E0,2.5E-2,2.1776E4,-3.3333335E-2,9.2E1,1.45E1,1E0,5.9E1,1.06E2,1.53E2,9.4E1,8.1E1,4E0,1E0,1.4E1,1.4290894E-2,1.2662831E-1,-9.926941E-3,7.297294E-2,-3.4536861E-3,1.4620258E-1,1.6905153E-1,2.5213199E-2,-2.23563E-3,2.3013334E-1,2.9050383E-1,4.4138424E-2,1.0320243E-2,2.6944654E-2,-2.6920974E-2,-1.6638014E-2],"split_indices":[5,1,0,1,6,2,19,6,6,4,6,6,5,18,3,0,0,0,0,0,0,0,0,0,0,0,0,0,0,0,0],"split_type":[0,0,0,0,0,0,0,0,0,0,0,0,0,0,0,0,0,0,0,0,0,0,0,0,0,0,0,0,0,0,0],"sum_hessian":[5.2006E4,3.1826E4,2.018E4,2.3495E4,8.331E3,4.795E3,1.5385E4,4.2E1,2.3453E4,8.175E3,1.56E2,4.77E3,2.5E1,1.458E4,8.05E2,3.8E1,4E0,2.3446E4,7E0,8.16E3,1.5E1,1.9E1,1.37E2,4.769E3,1E0,2E0,2.3E1,7.281E3,7.299E3,5.4E1,7.51E2],"tree_param":{"num_deleted":"0","num_feature":"20","num_nodes":"31","size_leaf_vector":"1"}},{"base_weights":[-4.04791E-3,-1.2563568E-1,3.124929E-1,-1.7523208E-1,6.1551455E-2,1.4905107E-1,4.8437354E-1,9.120583E-1,-1.769403E-1,3.8634576E-2,1.104986E0,-3.0988736E-2,3.3570543E-1,3.2924452E-1,7.315145E-1,2.7030254E-2,1.7048717E-1,-8.575171E-3,6.3178083E-3,1.2700849E-3,1.0185093E-1,5.8254134E-2,-1.0354868E-1,-7.604888E-3,8.774621E-3,1.2204316E-2,3.578379E-2,1.2208333E-3,2.0961171E-2,4.5934122E-2,1.6622549E-2],"categories":[],"categories_nodes":[],"categories_segments":[],"categories_sizes":[],"default_left":[0,0,0,0,0,0,0,0,0,0,0,0,0,0,0,0,0,0,0,0,0,0,0,0,0,0,0,0,0,0,0],"id":37,"left_children":[1,3,5,7,9,11,13,15,17,19,21,23,25,27,29,-1,-1,-1,-1,-1,-1,-1,-1,-1,-1,-1,-1,-1,-1,-1,-1],"loss_changes":[2.0120499E3,3.5066022E2,4.0749365E2,5.561975E1,1.8915112E2,2.4996596E2,2.708523E2,4.0915096E1,5.1173218E1,1.9130171E2,7.835118E1,1.0787148E2,1.180036E2,1.5384998E2,2.5283606E2,0E0,0E0,0E0,0E0,0E0,0E0,0E0,0E0,0E0,0E0,0E0,0E0,0E0,0E0,0E0,0E0],"parents":[2147483647,0,0,1,1,2,2,3,3,4,4,5,5,6,6,7,7,8,8,9,9,10,10,11,11,12,12,13,13,14,14],"right_children":[2,4,6,8,10,12,14,16,18,20,22,24,26,28,30,-1,-1,-1,-1,-1,-1,-1,-1,-1,-1,-1,-1,-1,-1,-1,-1],"split_conditions":[7.6E1,1E-1,5.1E1,-3.3333335E-2,9.7E1,1E0,4E0,5.9E1,7.4E1,1.48E2,1.15E1,4.8E1,1E0,2E-1,2E0,2.7030254E-2,1.7048717E-1,-8.575171E-3,6.3178083E-3,1.2700849E-3,1.0185093E-1,5.8254134E-2,-1.0354868E-1,-7.604888E-3,8.774621E-3,1.2204316E-2,3.578379E-2,1.2208333E-3,2.0961171E-2,4.5934122E-2,1.6622549E-2],"split_indices":[3,1,6,1,6,18,5,6,6,4,2,6,15,1,17,0,0,0,0,0,0,0,0,0,0,0,0,0,0,0,0],"split_type":[0,0,0,0,0,0,0,0,0,0,0,0,0,0,0,0,0,0,0,0,0,0,0,0,0,0,0,0,0,0,0],"sum_hessian":[5.2276E4,3.7769E4,1.4507E4,2.9858E4,7.911E3,7.437E3,7.07E3,4.6E1,2.9812E4,7.742E3,1.69E2,3.786E3,3.651E3,4.345E3,2.725E3,4.2E1,4E0,2.9294E4,5.18E2,7.701E3,4.1E1,1.63E2,6E0,2.365E3,1.421E3,3.099E3,5.52E2,1.208E3,3.137E3,1.65E3,1.075E3],"tree_param":{"num_deleted":"0","num_feature":"20","num_nodes":"31","size_leaf_vector":"1"}},{"base_weights":[-8.24607E-3,-1.2571707E-1,3.253829E-1,-1.6701768E-1,6.621174E-2,2.3658837E-1,7.4093294E-1,-1.8816963E-1,-4.443196E-2,1.3912648E-2,4.7042656E-1,2.7027005E-1,-3.6837244E-1,6.1527187E-1,1.3614558E0,-8.163469E-3,-1.1357634E-2,-6.6962377E-3,6.564559E-3,2.3888297E-4,1.04898274E-1,2.6397927E-2,-3.74475E-2,-1.8859002E-3,1.5881915E-2,-1.9313175E-2,-1.6256893E-2,3.713296E-2,1.2591707E-2,4.7063775E-2,9.864121E-2],"categories":[],"categories_nodes":[],"categories_segments":[],"categories_sizes":[],"default_left":[0,0,0,0,0,0,0,0,0,0,0,0,0,0,0,0,0,0,0,0,0,0,0,0,0,0,0,0,0,0,0],"id":38,"left_children":[1,3,5,7,9,11,13,15,17,19,21,23,25,27,29,-1,-1,-1,-1,-1,-1,-1,-1,-1,-1,-1,-1,-1,-1,-1,-1],"loss_changes":[2.0451437E3,3.059372E2,5.0123926E2,8.2342896E1,1.4448582E2,2.2827112E2,1.8567981E2,2.0932312E1,8.440234E1,1.1853488E2,9.09677E1,2.2274017E2,4.231491E-1,1.2067383E2,1.04628845E2,0E0,0E0,0E0,0E0,0E0,0E0,0E0,0E0,0E0,0E0,0E0,0E0,0E0,0E0,0E0,0E0],"parents":[2147483647,0,0,1,1,2,2,3,3,4,4,5,5,6,6,7,7,8,8,9,9,10,10,11,11,12,12,13,13,14,14],"right_children":[2,4,6,8,10,12,14,16,18,20,22,24,26,28,30,-1,-1,-1,-1,-1,-1,-1,-1,-1,-1,-1,-1,-1,-1,-1,-1],"split_conditions":[8.2E1,3.1E1,6.3E1,5.4E1,4.8E0,1E0,1.02E2,1E0,4.5684E4,3.863555E6,1.03E2,4.5E1,4.5684E4,1E0,1.31E2,-8.163469E-3,-1.1357634E-2,-6.6962377E-3,6.564559E-3,2.3888297E-4,1.04898274E-1,2.6397927E-2,-3.74475E-2,-1.8859002E-3,1.5881915E-2,-1.9313175E-2,-1.6256893E-2,3.713296E-2,1.2591707E-2,4.7063775E-2,9.864121E-2],"split_indices":[3,4,6,6,2,19,6,19,0,0,6,6,0,14,4,0,0,0,0,0,0,0,0,0,0,0,0,0,0,0,0],"split_type":[0,0,0,0,0,0,0,0,0,0,0,0,0,0,0,0,0,0,0,0,0,0,0,0,0,0,0,0,0,0,0],"sum_hessian":[5.2181E4,3.8593E4,1.3588E4,3.1759E4,6.834E3,1.1197E4,2.391E3,2.7085E4,4.674E3,6.052E3,7.82E2,1.0607E4,5.9E2,1.99E3,4.01E2,2.1318E4,5.767E3,3.05E3,1.624E3,6.029E3,2.3E1,7.3E2,5.2E1,1.898E3,8.709E3,1.98E2,3.92E2,1.323E3,6.67E2,2.71E2,1.3E2],"tree_param":{"num_deleted":"0","num_feature":"20","num_nodes":"31","size_leaf_vector":"1"}},{"base_weights":[-6.27746E-3,-1.4849626E-1,2.190723E-1,-1.5626955E-1,5.1117545E-1,1.2635094E-1,5.2657515E-1,-1.6413453E-1,1.2413496E-1,-2.2007455E-1,1.2129494E0,1.066249E-1,9.100011E-1,5.805201E-1,-1.7205972E-2,-8.433882E-3,-3.589728E-3,2.268313E-3,8.3476566E-2,-4.709501E-3,-5.9022497E-2,1.19576395E-1,2.6730077E-2,6.2711695E-3,-1.8132579E-2,3.71777E-2,2.121027E-1,2.6178468E-2,1.08682826E-1],"categories":[],"categories_nodes":[],"categories_segments":[],"categories_sizes":[],"default_left":[0,0,0,0,0,0,0,0,0,0,0,0,0,0,0,0,0,0,0,0,0,0,0,0,0,0,0,0,0],"id":39,"left_children":[1,3,5,7,9,11,13,15,17,19,21,23,25,27,-1,-1,-1,-1,-1,-1,-1,-1,-1,-1,-1,-1,-1,-1,-1],"loss_changes":[1.677668E3,1.6464697E2,5.774172E2,6.9974915E1,1.9219336E2,2.4048071E2,2.261532E2,4.1441345E1,1.08458115E2,2.2718618E1,1.6235663E2,2.0043964E2,1.6018832E2,1.7904626E2,0E0,0E0,0E0,0E0,0E0,0E0,0E0,0E0,0E0,0E0,0E0,0E0,0E0,0E0,0E0],"parents":[2147483647,0,0,1,1,2,2,3,3,4,4,5,5,6,6,7,7,8,8,9,9,10,10,11,11,12,12,13,13],"right_children":[2,4,6,8,10,12,14,16,18,20,22,24,26,28,-1,-1,-1,-1,-1,-1,-1,-1,-1,-1,-1,-1,-1,-1,-1],"split_conditions":[1E-1,6.71654E5,4E0,4E0,5.3E1,9.6E1,1E0,5.3059E4,3E0,2E0,1.8E1,1E0,3E0,1.82E2,-1.7205972E-2,-8.433882E-3,-3.589728E-3,2.268313E-3,8.3476566E-2,-4.709501E-3,-5.9022497E-2,1.19576395E-1,2.6730077E-2,6.2711695E-3,-1.8132579E-2,3.71777E-2,2.121027E-1,2.6178468E-2,1.08682826E-1],"split_indices":[1,0,5,5,6,6,19,0,7,11,4,19,17,4,0,0,0,0,0,0,0,0,0,0,0,0,0,0,0],"split_type":[0,0,0,0,0,0,0,0,0,0,0,0,0,0,0,0,0,0,0,0,0,0,0,0,0,0,0,0,0],"sum_hessian":[5.2345E4,3.2092E4,2.0253E4,3.1719E4,3.73E2,1.5562E4,4.691E3,3.0854E4,8.65E2,1.83E2,1.9E2,1.5181E4,3.81E2,4.424E3,2.67E2,2.627E4,4.584E3,8.28E2,3.7E1,1.65E2,1.8E1,6.1E1,1.29E2,1.4398E4,7.83E2,3.7E2,1.1E1,4.366E3,5.8E1],"tree_param":{"num_deleted":"0","num_feature":"20","num_nodes":"29","size_leaf_vector":"1"}},{"base_weights":[-2.4119474E-4,-1.1299547E-1,2.7057657E-1,-1.5159045E-1,4.648094E-2,1.6003774E-1,4.7629583E-1,-1.6814248E-1,-2.3935717E-2,-5.923765E-2,1.903605E-1,3.0168893E-2,2.9525995E-1,5.210639E-1,-3.401469E-1,-7.1993396E-3,-1.04115475E-2,1.4292179E-1,-1.292929E-3,-3.5776026E-3,2.3101643E-2,1.0886991E-2,-2.2714332E-2,-1.2933905E-2,4.637762E-3,7.196996E-3,2.691657E-2,1.6166842E-2,3.43967E-2,-1.5234584E-2,-2.1998974E-2],"categories":[],"categories_nodes":[],"categories_segments":[],"categories_sizes":[],"default_left":[0,0,0,0,0,0,0,0,0,0,0,0,0,0,0,0,0,0,0,0,0,0,0,0,0,0,0,0,0,0,0],"id":40,"left_children":[1,3,5,7,9,11,13,15,17,19,21,23,25,27,29,-1,-1,-1,-1,-1,-1,-1,-1,-1,-1,-1,-1,-1,-1,-1,-1],"loss_changes":[1.6032548E3,2.2817258E2,3.5089246E2,6.3061035E1,1.098937E2,1.763226E2,1.9733118E2,2.107196E1,3.7615757E1,3.8762413E1,8.5199615E1,1.0719599E2,1.9387936E2,1.9063794E2,4.236374E-1,0E0,0E0,0E0,0E0,0E0,0E0,0E0,0E0,0E0,0E0,0E0,0E0,0E0,0E0,0E0,0E0],"parents":[2147483647,0,0,1,1,2,2,3,3,4,4,5,5,6,6,7,7,8,8,9,9,10,10,11,11,12,12,13,13,14,14],"right_children":[2,4,6,8,10,12,14,16,18,20,22,24,26,28,30,-1,-1,-1,-1,-1,-1,-1,-1,-1,-1,-1,-1,-1,-1,-1,-1],"split_conditions":[7E1,5.4E1,2.84302E5,2.8E1,1.25E-1,1E0,1E0,1E0,1.284E3,6.71654E5,1E0,4.5E1,4.4E0,5.9E1,1.01E2,-7.1993396E-3,-1.04115475E-2,1.4292179E-1,-1.292929E-3,-3.5776026E-3,2.3101643E-2,1.0886991E-2,-2.2714332E-2,-1.2933905E-2,4.637762E-3,7.196996E-3,2.691657E-2,1.6166842E-2,3.43967E-2,-1.5234584E-2,-2.1998974E-2],"split_indices":[3,6,0,4,1,18,19,19,0,0,19,6,2,6,6,0,0,0,0,0,0,0,0,0,0,0,0,0,0,0,0],"split_type":[0,0,0,0,0,0,0,0,0,0,0,0,0,0,0,0,0,0,0,0,0,0,0,0,0,0,0,0,0,0,0],"sum_hessian":[5.2502E4,3.7069E4,1.5433E4,2.9846E4,7.223E3,1.004E4,5.393E3,2.642E4,3.426E3,4.164E3,3.059E3,5.122E3,4.918E3,5.113E3,2.8E2,2.0638E4,5.782E3,3E0,3.423E3,4.041E3,1.23E2,2.883E3,1.76E2,9.38E2,4.184E3,3.253E3,1.665E3,2.78E3,2.333E3,2.52E2,2.8E1],"tree_param":{"num_deleted":"0","num_feature":"20","num_nodes":"31","size_leaf_vector":"1"}},{"base_weights":[-4.834948E-3,-1.3781166E-1,1.8240215E-1,-1.3910894E-1,1.9481609E0,5.4991726E-2,3.56839E-1,-1.18760206E-1,-2.2242524E-1,-7.2253036E-1,2.9535885E0,-1.455716E-1,1.3222963E-1,1.8511577E-1,5.294266E-1,2.1626303E-2,-6.0094995E-3,-9.526341E-3,-1.998598E-2,-4.6417452E-3,-4.7457077E-2,1.982571E-1,2.6524525E-2,-1.732732E-2,-3.7171503E-3,4.173215E-3,2.0699838E-2,1.0071787E-2,-1.581078E-2,2.3124024E-2,1.0994439E-1],"categories":[],"categories_nodes":[],"categories_segments":[],"categories_sizes":[],"default_left":[0,0,0,0,0,0,0,0,0,0,0,0,0,0,0,0,0,0,0,0,0,0,0,0,0,0,0,0,0,0,0],"id":41,"left_children":[1,3,5,7,9,11,13,15,17,19,21,23,25,27,29,-1,-1,-1,-1,-1,-1,-1,-1,-1,-1,-1,-1,-1,-1,-1,-1],"loss_changes":[1.2971453E3,8.270654E1,4.808199E2,5.1589478E1,5.3152603E1,1.9371983E2,2.705498E2,1.2899167E2,2.3830872E1,9.751396E-1,3.992103E1,5.1541977E1,1.2082062E2,6.974869E1,3.0731104E2,0E0,0E0,0E0,0E0,0E0,0E0,0E0,0E0,0E0,0E0,0E0,0E0,0E0,0E0,0E0,0E0],"parents":[2147483647,0,0,1,1,2,2,3,3,4,4,5,5,6,6,7,7,8,8,9,9,10,10,11,11,12,12,13,13,14,14],"right_children":[2,4,6,8,10,12,14,16,18,20,22,24,26,28,30,-1,-1,-1,-1,-1,-1,-1,-1,-1,-1,-1,-1,-1,-1,-1,-1],"split_conditions":[1E0,8.666667E-1,5.4E1,1E0,6.6E1,1E-1,1E0,3.7E1,4E0,6.3149E4,1.02E2,4.4E1,1E0,1E0,3.863555E6,2.1626303E-2,-6.0094995E-3,-9.526341E-3,-1.998598E-2,-4.6417452E-3,-4.7457077E-2,1.982571E-1,2.6524525E-2,-1.732732E-2,-3.7171503E-3,4.173215E-3,2.0699838E-2,1.0071787E-2,-1.581078E-2,2.3124024E-2,1.0994439E-1],"split_indices":[3,1,6,19,6,1,18,6,4,0,6,6,15,19,0,0,0,0,0,0,0,0,0,0,0,0,0,0,0,0,0],"split_type":[0,0,0,0,0,0,0,0,0,0,0,0,0,0,0,0,0,0,0,0,0,0,0,0,0,0,0,0,0,0,0],"sum_hessian":[5.2096E4,3.0462E4,2.1634E4,3.0444E4,1.8E1,1.2503E4,9.131E3,2.447E4,5.974E3,5E0,1.3E1,3.476E3,9.027E3,4.578E3,4.553E3,3.78E2,2.4092E4,5.446E3,5.28E2,2E0,3E0,8E0,5E0,7.97E2,2.679E3,7.913E3,1.114E3,4.336E3,2.42E2,4.462E3,9.1E1],"tree_param":{"num_deleted":"0","num_feature":"20","num_nodes":"31","size_leaf_vector":"1"}},{"base_weights":[-2.0932395E-3,-1.24603674E-1,2.2523342E-1,-1.4010686E-1,1.1325687E-1,1.0226664E-1,3.846919E-1,-1.6094463E-1,-7.095321E-2,6.921574E-2,1.493966E0,-2.0171145E-2,2.2599868E-1,5.4943657E-1,2.007108E-1,1.4245221E-1,-7.5763734E-3,6.433912E-2,-3.555684E-3,-7.739622E-2,3.8986441E-3,-2.6216699E-2,1.2495244E-1,-1.8689544E-3,5.1145107E-2,1.6705437E-2,3.5178883E-3,2.7813615E-2,-1.6219594E-2,5.6533036E-3,3.246778E-2],"categories":[],"categories_nodes":[],"categories_segments":[],"categories_sizes":[],"default_left":[0,0,0,0,0,0,0,0,0,0,0,0,0,0,0,0,0,0,0,0,0,0,0,0,0,0,0,0,0,0,0],"id":42,"left_children":[1,3,5,7,9,11,13,15,17,19,21,23,25,27,29,-1,-1,-1,-1,-1,-1,-1,-1,-1,-1,-1,-1,-1,-1,-1,-1],"loss_changes":[1.4508958E3,1.2485205E2,3.5769073E2,4.5786682E1,1.2589076E2,1.5607448E2,2.4064148E2,2.035138E1,4.9914505E1,4.7482746E1,1.5440984E2,1.1251629E2,1.00220764E2,1.5890771E2,1.4788863E2,0E0,0E0,0E0,0E0,0E0,0E0,0E0,0E0,0E0,0E0,0E0,0E0,0E0,0E0,0E0,0E0],"parents":[2147483647,0,0,1,1,2,2,3,3,4,4,5,5,6,6,7,7,8,8,9,9,10,10,11,11,12,12,13,13,14,14],"right_children":[2,4,6,8,10,12,14,16,18,20,22,24,26,28,30,-1,-1,-1,-1,-1,-1,-1,-1,-1,-1,-1,-1,-1,-1,-1,-1],"split_conditions":[8E-1,2.5E-1,2.6666668E-1,5E1,2.07911E6,1E0,2E0,-3E0,0E0,-1E0,6.6E1,1.32E1,1E0,1E0,1.02E2,1.4245221E-1,-7.5763734E-3,6.433912E-2,-3.555684E-3,-7.739622E-2,3.8986441E-3,-2.6216699E-2,1.2495244E-1,-1.8689544E-3,5.1145107E-2,1.6705437E-2,3.5178883E-3,2.7813615E-2,-1.6219594E-2,5.6533036E-3,3.246778E-2],"split_indices":[2,1,1,6,0,18,17,5,1,5,6,2,16,19,4,0,0,0,0,0,0,0,0,0,0,0,0,0,0,0,0],"split_type":[0,0,0,0,0,0,0,0,0,0,0,0,0,0,0,0,0,0,0,0,0,0,0,0,0,0,0,0,0,0,0],"sum_hessian":[5.2095E4,3.3852E4,1.8243E4,3.1781E4,2.071E3,1.0301E4,7.942E3,2.4421E4,7.36E3,2.008E3,6.3E1,5.178E3,5.123E3,4.189E3,3.753E3,1E0,2.442E4,2.3E1,7.337E3,1.5E1,1.993E3,2.3E1,4E1,5.089E3,8.9E1,2.759E3,2.364E3,4E3,1.89E2,3.225E3,5.28E2],"tree_param":{"num_deleted":"0","num_feature":"20","num_nodes":"31","size_leaf_vector":"1"}},{"base_weights":[5.3370517E-4,-1.2077629E-1,1.9062336E-1,-1.3368508E-1,2.2636195E-1,2.217379E-1,-3.652842E-1,-1.17350735E-1,-2.0256175E-1,1.060009E-1,1.268263E0,1.9689944E-1,1.0193741E0,-4.5735335E-1,-3.331549E-1,1.7206376E-2,-5.834235E-3,-8.6933235E-3,-1.7069606E-2,2.0365382E-2,-2.9424946E-3,6.7792855E-2,-1.0583181E-1,2.4700891E-3,1.4394364E-2,5.056535E-2,-1.097951E-1,-2.0180967E-2,-4.674167E-2,-1.5375088E-2,-2.2489836E-2],"categories":[],"categories_nodes":[],"categories_segments":[],"categories_sizes":[],"default_left":[0,0,0,0,0,0,0,0,0,0,0,0,0,0,0,0,0,0,0,0,0,0,0,0,0,0,0,0,0,0,0],"id":43,"left_children":[1,3,5,7,9,11,13,15,17,19,21,23,25,27,29,-1,-1,-1,-1,-1,-1,-1,-1,-1,-1,-1,-1,-1,-1,-1,-1],"loss_changes":[1.2112837E3,1.437178E2,3.5402582E2,3.4758423E1,1.440805E2,3.8373724E2,3.05719E0,8.19863E1,1.6679962E1,5.6979065E1,7.6191025E1,2.9668213E2,1.1338837E2,3.7498398E0,5.511093E-1,0E0,0E0,0E0,0E0,0E0,0E0,0E0,0E0,0E0,0E0,0E0,0E0,0E0,0E0,0E0,0E0],"parents":[2147483647,0,0,1,1,2,2,3,3,4,4,5,5,6,6,7,7,8,8,9,9,10,10,11,11,12,12,13,13,14,14],"right_children":[2,4,6,8,10,12,14,16,18,20,22,24,26,28,30,-1,-1,-1,-1,-1,-1,-1,-1,-1,-1,-1,-1,-1,-1,-1,-1],"split_conditions":[1E-1,3E0,1E0,1E0,7E1,9.8E1,2.1E1,3.7E1,2E0,1E1,1.92E1,8.2E1,2.55E2,1.1E2,1.04E2,1.7206376E-2,-5.834235E-3,-8.6933235E-3,-1.7069606E-2,2.0365382E-2,-2.9424946E-3,6.7792855E-2,-1.0583181E-1,2.4700891E-3,1.4394364E-2,5.056535E-2,-1.097951E-1,-2.0180967E-2,-4.674167E-2,-1.5375088E-2,-2.2489836E-2],"split_indices":[1,5,19,19,6,6,3,6,4,4,2,3,4,4,6,0,0,0,0,0,0,0,0,0,0,0,0,0,0,0,0],"split_type":[0,0,0,0,0,0,0,0,0,0,0,0,0,0,0,0,0,0,0,0,0,0,0,0,0,0,0,0,0,0,0],"sum_hessian":[5.2526E4,3.2064E4,2.0462E4,3.0915E4,1.149E3,1.9378E4,1.084E3,2.4991E4,5.924E3,1.031E3,1.18E2,1.8794E4,5.84E2,2.77E2,8.07E2,3.45E2,2.4646E4,5.341E3,5.83E2,3.5E2,6.81E2,1.13E2,5E0,8.102E3,1.0692E4,5.75E2,9E0,2.65E2,1.2E1,7.78E2,2.9E1],"tree_param":{"num_deleted":"0","num_feature":"20","num_nodes":"31","size_leaf_vector":"1"}},{"base_weights":[6.953066E-4,-9.3719624E-2,2.673566E-1,-1.2969822E-1,7.880265E-2,1.7194325E-1,4.967766E-1,-1.3004236E-1,2.551956E-1,6.1501223E-3,4.5169312E-1,1.14391774E-1,4.8267594E-1,3.5052526E-1,7.700933E-1,-6.0070693E-3,-3.483767E-2,1.5591457E-3,-1.9709054E-2,3.8746544E-3,3.0871172E-2,-1.1392485E-3,1.2105374E-2,2.7062686E-2,-9.962205E-3,1.5503431E-2,9.6964784E-2,1.2709652E-1,3.369837E-2],"categories":[],"categories_nodes":[],"categories_segments":[],"categories_sizes":[],"default_left":[0,0,0,0,0,0,0,0,0,0,0,0,0,0,0,0,0,0,0,0,0,0,0,0,0,0,0,0,0],"id":44,"left_children":[1,3,5,7,9,11,13,15,-1,17,19,21,23,25,27,-1,-1,-1,-1,-1,-1,-1,-1,-1,-1,-1,-1,-1,-1],"loss_changes":[1.3156392E3,2.39555E2,2.9901593E2,6.180066E1,1.8042616E2,1.725527E2,1.6014148E2,4.3473022E1,0E0,6.4116066E1,8.220909E1,1.6166605E2,9.767276E1,9.189969E1,1.4165399E2,0E0,0E0,0E0,0E0,0E0,0E0,0E0,0E0,0E0,0E0,0E0,0E0,0E0,0E0],"parents":[2147483647,0,0,1,1,2,2,3,3,4,4,5,5,6,6,7,7,9,9,10,10,11,11,12,12,13,13,14,14],"right_children":[2,4,6,8,10,12,14,16,-1,18,20,22,24,26,28,-1,-1,-1,-1,-1,-1,-1,-1,-1,-1,-1,-1,-1,-1],"split_conditions":[8.2E1,3.2E1,5.6E1,1.26E2,3.4E0,1E0,6E0,8E1,2.551956E-1,1E0,1E0,1E0,1.08E2,1.47E1,9E0,-6.0070693E-3,-3.483767E-2,1.5591457E-3,-1.9709054E-2,3.8746544E-3,3.0871172E-2,-1.1392485E-3,1.2105374E-2,2.7062686E-2,-9.962205E-3,1.5503431E-2,9.6964784E-2,1.2709652E-1,3.369837E-2],"split_indices":[3,4,6,6,2,15,5,3,0,19,16,18,4,2,4,0,0,0,0,0,0,0,0,0,0,0,0,0,0],"split_type":[0,0,0,0,0,0,0,0,0,0,0,0,0,0,0,0,0,0,0,0,0,0,0,0,0,0,0,0,0],"sum_hessian":[5.2254E4,3.8591E4,1.3663E4,3.1932E4,6.659E3,9.651E3,4.012E3,3.1931E4,1E0,5.574E3,1.085E3,8.144E3,1.507E3,2.615E3,1.397E3,3.1816E4,1.15E2,5.242E3,3.32E2,3.88E2,6.97E2,4.138E3,4.006E3,1.329E3,1.78E2,2.585E3,3E1,3.6E1,1.361E3],"tree_param":{"num_deleted":"0","num_feature":"20","num_nodes":"29","size_leaf_vector":"1"}},{"base_weights":[3.0482009E-3,-1.0057276E-1,2.1761619E-1,-1.0838916E-1,4.7407144E-1,7.258881E-2,3.6364427E-1,-1.3458546E-1,-2.8967487E-2,1.7240813E-1,1.4919853E0,5.3325962E-2,1.2111632E0,3.1015685E-1,9.1598034E-1,-6.3927704E-3,3.4638815E-2,-7.7439174E-3,1.0616455E-3,4.661276E-2,-1.1612881E-3,2.7837476E-1,4.837949E-2,-7.3755737E-3,6.085195E-3,1.5014793E-1,2.844019E-2,1.6230883E-2,-1.6420972E-2,9.4315346E-4,5.0155316E-2],"categories":[],"categories_nodes":[],"categories_segments":[],"categories_sizes":[],"default_left":[0,0,0,0,0,0,0,0,0,0,0,0,0,0,0,0,0,0,0,0,0,0,0,0,0,0,0,0,0,0,0],"id":45,"left_children":[1,3,5,7,9,11,13,15,17,19,21,23,25,27,29,-1,-1,-1,-1,-1,-1,-1,-1,-1,-1,-1,-1,-1,-1,-1,-1],"loss_changes":[1.161668E3,1.5830582E2,3.6031854E2,7.231818E1,1.449856E2,1.8719241E2,2.5018152E2,3.270047E1,6.037415E1,5.913638E1,2.1529024E2,1.3445618E2,1.6876361E2,1.7950543E2,1.0127344E2,0E0,0E0,0E0,0E0,0E0,0E0,0E0,0E0,0E0,0E0,0E0,0E0,0E0,0E0,0E0,0E0],"parents":[2147483647,0,0,1,1,2,2,3,3,4,4,5,5,6,6,7,7,8,8,9,9,10,10,11,11,12,12,13,13,14,14],"right_children":[2,4,6,8,10,12,14,16,18,20,22,24,26,28,30,-1,-1,-1,-1,-1,-1,-1,-1,-1,-1,-1,-1,-1,-1,-1,-1],"split_conditions":[1.5E-1,8.3E0,1E0,3.3019E4,3.17447E5,1.54E1,7.9E1,8.2E1,4.3E1,8.9E0,3.89831E5,4.8E1,8E0,1E0,1E0,-6.3927704E-3,3.4638815E-2,-7.7439174E-3,1.0616455E-3,4.661276E-2,-1.1612881E-3,2.7837476E-1,4.837949E-2,-7.3755737E-3,6.085195E-3,1.5014793E-1,2.844019E-2,1.6230883E-2,-1.6420972E-2,9.4315346E-4,5.0155316E-2],"split_indices":[1,2,18,0,0,2,6,6,6,2,0,6,5,19,3,0,0,0,0,0,0,0,0,0,0,0,0,0,0,0,0],"split_type":[0,0,0,0,0,0,0,0,0,0,0,0,0,0,0,0,0,0,0,0,0,0,0,0,0,0,0,0,0,0,0],"sum_hessian":[5.2246E4,3.5232E4,1.7014E4,3.476E4,4.72E2,8.537E3,8.477E3,2.6138E4,8.622E3,3.65E2,1.07E2,8.396E3,1.41E2,7.73E3,7.47E2,2.6096E4,4.2E1,2.372E3,6.25E3,7E1,2.95E2,9E0,9.8E1,2.232E3,6.164E3,3.2E1,1.09E2,7.339E3,3.91E2,1.08E2,6.39E2],"tree_param":{"num_deleted":"0","num_feature":"20","num_nodes":"31","size_leaf_vector":"1"}},{"base_weights":[-1.0816437E-3,-9.255083E-2,2.2005114E-1,-1.3560417E-1,-6.558721E-3,1.7026576E-1,5.5399144E-1,-1.3611962E-1,2.9542384E-1,-1.2634574E-2,1.7318531E0,1.607393E-1,1.7447664E0,5.977409E-1,-9.0985197E-1,-6.310383E-3,-3.1837795E-2,-5.545211E-3,3.2161146E-3,2.607998E-1,3.92688E-2,5.596575E-3,2.2201702E-2,2.5400827E-2,1.5783772E-1,7.671202E-2,2.5754606E-2,7.774665E-2,-8.2874E-2],"categories":[],"categories_nodes":[],"categories_segments":[],"categories_sizes":[],"default_left":[0,0,0,0,0,0,0,0,0,0,0,0,0,0,0,0,0,0,0,0,0,0,0,0,0,0,0,0,0],"id":46,"left_children":[1,3,5,7,9,11,13,15,-1,17,19,21,23,25,27,-1,-1,-1,-1,-1,-1,-1,-1,-1,-1,-1,-1,-1,-1],"loss_changes":[1.0578434E3,1.3696747E2,2.5432343E2,8.245221E1,1.3040335E2,1.994967E2,1.2766785E2,2.467685E1,0E0,1.05065056E2,1.4248517E2,1.7184955E2,1.5363745E2,9.8367004E1,1.2983307E2,0E0,0E0,0E0,0E0,0E0,0E0,0E0,0E0,0E0,0E0,0E0,0E0,0E0,0E0],"parents":[2147483647,0,0,1,1,2,2,3,3,4,4,5,5,6,6,7,7,9,9,10,10,11,11,12,12,13,13,14,14],"right_children":[2,4,6,8,10,12,14,16,-1,18,20,22,24,26,28,-1,-1,-1,-1,-1,-1,-1,-1,-1,-1,-1,-1,-1,-1],"split_conditions":[7E1,4.9E1,8.6E0,1.38E2,1.14E1,3.863555E6,4E0,3E0,2.9542384E-1,1.6112E4,1.19E1,1E0,1E0,1E1,1E0,-6.310383E-3,-3.1837795E-2,-5.545211E-3,3.2161146E-3,2.607998E-1,3.92688E-2,5.596575E-3,2.2201702E-2,2.5400827E-2,1.5783772E-1,7.671202E-2,2.5754606E-2,7.774665E-2,-8.2874E-2],"split_indices":[3,6,2,4,2,0,11,11,0,0,2,15,16,4,17,0,0,0,0,0,0,0,0,0,0,0,0,0,0],"split_type":[0,0,0,0,0,0,0,0,0,0,0,0,0,0,0,0,0,0,0,0,0,0,0,0,0,0,0,0,0],"sum_hessian":[5.2297E4,3.6995E4,1.5302E4,2.4652E4,1.2343E4,1.3318E4,1.984E3,2.4651E4,1E0,1.2301E4,4.2E1,1.3239E4,7.9E1,1.927E3,5.7E1,2.4568E4,8.3E1,5.349E3,6.952E3,7E0,3.5E1,1.1679E4,1.56E3,4.6E1,3.3E1,8.7E1,1.84E3,1.4E1,4.3E1],"tree_param":{"num_deleted":"0","num_feature":"20","num_nodes":"29","size_leaf_vector":"1"}},{"base_weights":[4.7978368E-3,-7.655614E-2,2.3487586E-1,-1.0218379E-1,1.2909454E-1,7.925089E-2,3.937409E-1,-1.03918605E-1,1.0421939E0,7.668566E-2,5.5719835E-1,-1.5710248E-1,1.9329163E-1,3.0736795E-1,9.357792E-1,-4.513675E-2,-4.7968584E-3,9.519653E-2,-1.8362291E-2,9.065448E-3,-3.358947E-3,-5.591865E-4,4.9500644E-2,-1.8772426E-3,-1.6137483E-2,7.026419E-3,2.808345E-2,1.608591E-2,-1.7115247E-2,4.212193E-2,2.2899026E-1],"categories":[],"categories_nodes":[],"categories_segments":[],"categories_sizes":[],"default_left":[0,0,0,0,0,0,0,0,0,0,0,0,0,0,0,0,0,0,0,0,0,0,0,0,0,0,0,0,0,0,0],"id":47,"left_children":[1,3,5,7,9,11,13,15,17,19,21,23,25,27,29,-1,-1,-1,-1,-1,-1,-1,-1,-1,-1,-1,-1,-1,-1,-1,-1],"loss_changes":[9.7714136E2,2.0327452E2,3.371214E2,6.819183E1,9.585064E1,1.8574283E2,3.1563647E2,5.43851E1,7.405414E1,6.558486E1,1.3155289E2,4.8930904E1,8.2192E1,1.3651288E2,1.4001709E2,0E0,0E0,0E0,0E0,0E0,0E0,0E0,0E0,0E0,0E0,0E0,0E0,0E0,0E0,0E0,0E0],"parents":[2147483647,0,0,1,1,2,2,3,3,4,4,5,5,6,6,7,7,8,8,9,9,10,10,11,11,12,12,13,13,14,14],"right_children":[2,4,6,8,10,12,14,16,18,20,22,24,26,28,30,-1,-1,-1,-1,-1,-1,-1,-1,-1,-1,-1,-1,-1,-1,-1,-1],"split_conditions":[8.2E1,4.6E1,1E0,1.05E2,8E1,4.8E1,8.1E0,0E0,1.16E2,2E0,1E0,2E0,1E0,1E0,5E0,-4.513675E-2,-4.7968584E-3,9.519653E-2,-1.8362291E-2,9.065448E-3,-3.358947E-3,-5.591865E-4,4.9500644E-2,-1.8772426E-3,-1.6137483E-2,7.026419E-3,2.808345E-2,1.608591E-2,-1.7115247E-2,4.212193E-2,2.2899026E-1],"split_indices":[3,4,18,6,6,6,2,5,6,7,18,11,15,19,11,0,0,0,0,0,0,0,0,0,0,0,0,0,0,0,0],"split_type":[0,0,0,0,0,0,0,0,0,0,0,0,0,0,0,0,0,0,0,0,0,0,0,0,0,0,0,0,0,0,0],"sum_hessian":[5.2202E4,3.8566E4,1.3636E4,3.4293E4,4.273E3,6.889E3,6.747E3,3.4242E4,5.1E1,3.808E3,4.65E2,2.242E3,4.647E3,5.821E3,9.26E2,7.3E1,3.4169E4,3E1,2.1E1,2.134E3,1.674E3,2.17E2,2.48E2,1.377E3,8.65E2,4.194E3,4.53E2,5.534E3,2.87E2,9.18E2,8E0],"tree_param":{"num_deleted":"0","num_feature":"20","num_nodes":"31","size_leaf_vector":"1"}},{"base_weights":[1.2576617E-3,-7.345293E-2,2.182123E-1,-1.12101085E-1,4.030747E-2,2.4746461E-1,-3.421158E-1,-1.3045998E-1,-5.39992E-2,6.703774E-2,-3.961378E-1,2.0702513E-1,6.7716694E-1,-1.5479414E-2,-2.0494398E-2,-6.013216E-3,-3.447956E-2,-3.1911165E-3,1.2648754E-2,-4.047417E-3,6.8962043E-3,-1.7843958E-2,-4.7882047E-2,3.0167545E-3,1.6439604E-2,1.8748957E-1,3.0500187E-2],"categories":[],"categories_nodes":[],"categories_segments":[],"categories_sizes":[],"default_left":[0,0,0,0,0,0,0,0,0,0,0,0,0,0,0,0,0,0,0,0,0,0,0,0,0,0,0],"id":48,"left_children":[1,3,5,7,9,11,13,15,17,19,21,23,25,-1,-1,-1,-1,-1,-1,-1,-1,-1,-1,-1,-1,-1,-1],"loss_changes":[8.4248505E2,1.6999142E2,2.1831299E2,3.0776459E1,1.14414635E2,2.1974762E2,6.4907837E-1,3.3226196E1,3.1141151E1,1.1278467E2,5.4205933E0,2.3583765E2,9.912442E1,0E0,0E0,0E0,0E0,0E0,0E0,0E0,0E0,0E0,0E0,0E0,0E0,0E0,0E0],"parents":[2147483647,0,0,1,1,2,2,3,3,4,4,5,5,6,6,7,7,8,8,9,9,10,10,11,11,12,12],"right_children":[2,4,6,8,10,12,14,16,18,20,22,24,26,-1,-1,-1,-1,-1,-1,-1,-1,-1,-1,-1,-1,-1,-1],"split_conditions":[8.3E1,5.2E1,1E0,4.6E1,1E0,1.01E1,8.6E0,7.9E1,3.75E-1,1.9036E4,1.04E2,1E0,4E0,-1.5479414E-2,-2.0494398E-2,-6.013216E-3,-3.447956E-2,-3.1911165E-3,1.2648754E-2,-4.047417E-3,6.8962043E-3,-1.7843958E-2,-4.7882047E-2,3.0167545E-3,1.6439604E-2,1.8748957E-1,3.0500187E-2],"split_indices":[3,6,19,6,19,2,2,3,1,0,6,18,4,0,0,0,0,0,0,0,0,0,0,0,0,0,0],"split_type":[0,0,0,0,0,0,0,0,0,0,0,0,0,0,0,0,0,0,0,0,0,0,0,0,0,0,0],"sum_hessian":[5.1975E4,3.8662E4,1.3313E4,2.8858E4,9.804E3,1.2653E4,6.6E2,2.1928E4,6.93E3,9.239E3,5.65E2,1.1566E4,1.087E3,5.85E2,7.5E1,2.1838E4,9E1,6.645E3,2.85E2,3.162E3,6.077E3,5.52E2,1.3E1,5.782E3,5.784E3,8E0,1.079E3],"tree_param":{"num_deleted":"0","num_feature":"20","num_nodes":"27","size_leaf_vector":"1"}},{"base_weights":[2.4123401E-3,-4.57603E-2,3.0028704E-1,-1.03667155E-1,7.110778E-2,3.405681E-1,-3.424605E-1,-1.0600843E-1,1.2169598E0,-4.1107807E-2,1.7953174E-1,2.510087E-1,5.5474263E-1,-1.511659E-2,-2.0872865E-2,-5.1854597E-3,1.6637687E-2,1.1790232E-3,1.6605566E-1,3.3620484E-3,-7.991047E-3,6.549573E-3,3.3087946E-2,9.8721925E-3,3.6328033E-2,1.6996926E-2,3.600363E-2],"categories":[],"categories_nodes":[],"categories_segments":[],"categories_sizes":[],"default_left":[0,0,0,0,0,0,0,0,0,0,0,0,0,0,0,0,0,0,0,0,0,0,0,0,0,0,0],"id":49,"left_children":[1,3,5,7,9,11,13,15,17,19,21,23,25,-1,-1,-1,-1,-1,-1,-1,-1,-1,-1,-1,-1,-1,-1],"loss_changes":[7.454656E2,3.0264157E2,1.8735718E2,9.258783E1,1.802837E2,1.3040894E2,7.61261E-1,5.936606E1,1.4622037E2,1.0575425E2,1.5870522E2,1.024794E2,8.157129E1,0E0,0E0,0E0,0E0,0E0,0E0,0E0,0E0,0E0,0E0,0E0,0E0,0E0,0E0],"parents":[2147483647,0,0,1,1,2,2,3,3,4,4,5,5,6,6,7,7,8,8,9,9,10,10,11,11,12,12],"right_children":[2,4,6,8,10,12,14,16,18,20,22,24,26,-1,-1,-1,-1,-1,-1,-1,-1,-1,-1,-1,-1,-1,-1],"split_conditions":[3E0,4.3603E4,1E0,7.9E1,1E0,7.2E1,8.9E0,4E-1,3.8E0,2E0,8E1,1.25E1,1E0,-1.511659E-2,-2.0872865E-2,-5.1854597E-3,1.6637687E-2,1.1790232E-3,1.6605566E-1,3.3620484E-3,-7.991047E-3,6.549573E-3,3.3087946E-2,9.8721925E-3,3.6328033E-2,1.6996926E-2,3.600363E-2],"split_indices":[5,0,19,4,18,4,2,1,2,17,6,2,18,0,0,0,0,0,0,0,0,0,0,0,0,0,0],"split_type":[0,0,0,0,0,0,0,0,0,0,0,0,0,0,0,0,0,0,0,0,0,0,0,0,0,0,0],"sum_hessian":[5.1949E4,4.4718E4,7.231E3,2.9902E4,1.4816E4,6.805E3,4.26E2,2.985E4,5.2E1,7.281E3,7.535E3,4.8E3,2.005E3,3.57E2,6.9E1,2.9573E4,2.77E2,3.5E1,1.7E1,3.886E3,3.395E3,7E3,5.35E2,4.452E3,3.48E2,1.049E3,9.56E2],"tree_param":{"num_deleted":"0","num_feature":"20","num_nodes":"27","size_leaf_vector":"1"}},{"base_weights":[6.0540414E-3,-7.234904E-2,1.9071811E-1,-9.410414E-2,9.2136204E-2,2.206625E-1,-3.3328617E-1,-9.118865E-2,-6.699181E-1,8.263094E-2,2.4730966E0,1.425351E-1,4.2158377E-1,-3.13956E-1,-5.595259E-1,-5.289613E-3,-1.4091977E-3,-3.8543724E-2,2.4031458E-2,-4.091328E-3,7.6551577E-3,-3.1765256E-2,1.99851E-1,4.580874E-3,2.1444129E-2,1.16952285E-2,2.8502764E-2,-1.7760172E-2,-1.3973903E-2,-4.7932662E-2,-2.1002956E-2],"categories":[],"categories_nodes":[],"categories_segments":[],"categories_sizes":[],"default_left":[0,0,0,0,0,0,0,0,0,0,0,0,0,0,0,0,0,0,0,0,0,0,0,0,0,0,0,0,0,0,0],"id":50,"left_children":[1,3,5,7,9,11,13,15,17,19,21,23,25,27,29,-1,-1,-1,-1,-1,-1,-1,-1,-1,-1,-1,-1,-1,-1,-1,-1],"loss_changes":[7.5632764E2,1.3122835E2,2.4436646E2,5.430963E1,9.6749664E1,2.3113202E2,3.5066223E0,4.2118805E1,2.9331322E1,5.8127125E1,9.811044E1,1.4991803E2,1.3151324E2,7.150955E-1,2.914959E0,0E0,0E0,0E0,0E0,0E0,0E0,0E0,0E0,0E0,0E0,0E0,0E0,0E0,0E0,0E0,0E0],"parents":[2147483647,0,0,1,1,2,2,3,3,4,4,5,5,6,6,7,7,8,8,9,9,10,10,11,11,12,12,13,13,14,14],"right_children":[2,4,6,8,10,12,14,16,18,20,22,24,26,28,30,-1,-1,-1,-1,-1,-1,-1,-1,-1,-1,-1,-1,-1,-1,-1,-1],"split_conditions":[1.6666667E-1,2.1E0,1E0,2E0,1.42E2,4.9E0,8.1E1,2.6066E4,5.6E1,1.9573E4,3E0,1E0,1E0,1.9E1,1E-1,-5.289613E-3,-1.4091977E-3,-3.8543724E-2,2.4031458E-2,-4.091328E-3,7.6551577E-3,-3.1765256E-2,1.99851E-1,4.580874E-3,2.1444129E-2,1.16952285E-2,2.8502764E-2,-1.7760172E-2,-1.3973903E-2,-4.7932662E-2,-2.1002956E-2],"split_indices":[1,2,19,2,4,2,6,0,4,0,5,15,18,3,2,0,0,0,0,0,0,0,0,0,0,0,0,0,0,0,0],"split_type":[0,0,0,0,0,0,0,0,0,0,0,0,0,0,0,0,0,0,0,0,0,0,0,0,0,0,0,0,0,0,0],"sum_hessian":[5.2237E4,3.6669E4,1.5568E4,3.2386E4,4.283E3,1.4727E4,8.41E2,3.2224E4,1.62E2,4.267E3,1.6E1,1.0605E4,4.122E3,7.77E2,6.4E1,2.3888E4,8.336E3,1.44E2,1.8E1,1.37E3,2.897E3,6E0,1E1,9.274E3,1.331E3,2.132E3,1.99E3,1.56E2,6.21E2,1.1E1,5.3E1],"tree_param":{"num_deleted":"0","num_feature":"20","num_nodes":"31","size_leaf_vector":"1"}},{"base_weights":[-3.8926126E-3,-7.0039704E-2,1.811079E-1,-7.507887E-2,5.354631E-1,1.5401629E-1,1.1282071E0,-1.1300672E-1,-2.1896224E-2,2.2550201E0,2.6659516E-1,2.9795052E-2,2.7955338E-1,3.1726718E0,9.075939E-1,-5.343473E-3,7.5165406E-2,-7.450429E-2,-8.67503E-4,4.905814E-2,1.9016623E-1,-2.4582974E-3,6.564349E-2,-4.6884306E-3,6.379202E-3,1.24111585E-2,1.0750194E-1,-2.5221944E-2,1.8367192E-1,3.023485E-2,1.082829E-1],"categories":[],"categories_nodes":[],"categories_segments":[],"categories_sizes":[],"default_left":[0,0,0,0,0,0,0,0,0,0,0,0,0,0,0,0,0,0,0,0,0,0,0,0,0,0,0,0,0,0,0],"id":51,"left_children":[1,3,5,7,9,11,13,15,17,19,21,23,25,27,29,-1,-1,-1,-1,-1,-1,-1,-1,-1,-1,-1,-1,-1,-1,-1,-1],"loss_changes":[6.418317E2,1.17924225E2,3.5427182E2,7.7286896E1,1.468833E2,2.0943973E2,1.7031836E2,2.6384521E1,8.572467E1,8.906082E1,9.9898346E1,9.2674324E1,2.0709015E2,1.03004974E2,1.2694394E2,0E0,0E0,0E0,0E0,0E0,0E0,0E0,0E0,0E0,0E0,0E0,0E0,0E0,0E0,0E0,0E0],"parents":[2147483647,0,0,1,1,2,2,3,3,4,4,5,5,6,6,7,7,8,8,9,9,10,10,11,11,12,12,13,13,14,14],"right_children":[2,4,6,8,10,12,14,16,18,20,22,24,26,28,30,-1,-1,-1,-1,-1,-1,-1,-1,-1,-1,-1,-1,-1,-1,-1,-1],"split_conditions":[8.2E1,1.523968E6,1.03E2,4.7E1,1E0,1E0,3.40987E5,5E0,-1E0,2E0,8.3E1,5E1,3.863555E6,1.3333334E-1,1.27E2,-5.343473E-3,7.5165406E-2,-7.450429E-2,-8.67503E-4,4.905814E-2,1.9016623E-1,-2.4582974E-3,6.564349E-2,-4.6884306E-3,6.379202E-3,1.24111585E-2,1.0750194E-1,-2.5221944E-2,1.8367192E-1,3.023485E-2,1.082829E-1],"split_indices":[3,0,6,6,17,18,0,11,5,5,6,6,0,1,6,0,0,0,0,0,0,0,0,0,0,0,0,0,0,0,0],"split_type":[0,0,0,0,0,0,0,0,0,0,0,0,0,0,0,0,0,0,0,0,0,0,0,0,0,0,0,0,0,0,0],"sum_hessian":[5.2447E4,3.8634E4,1.3813E4,3.8316E4,3.18E2,1.343E4,3.83E2,2.2365E4,1.5951E4,4.2E1,2.76E2,6.751E3,6.679E3,3.6E1,3.47E2,2.2357E4,8E0,3.4E1,1.5917E4,2.6E1,1.6E1,2.16E2,6E1,3.037E3,3.714E3,6.629E3,5E1,6E0,3E1,2.93E2,5.4E1],"tree_param":{"num_deleted":"0","num_feature":"20","num_nodes":"31","size_leaf_vector":"1"}},{"base_weights":[3.23908E-5,-5.0141323E-2,2.534606E-1,-8.199317E-2,9.8457634E-2,9.927855E-2,4.1129303E-1,-1.01737864E-1,-8.307222E-3,9.486223E-2,4.7081337E0,-2.01608E-1,1.7979941E-1,3.1643164E-1,8.538955E-1,-4.3345768E-2,-4.689028E-3,-3.9905375E-3,3.6896467E-3,1.1961869E-3,1.2032698E-2,-2.0511469E-2,2.737433E-1,3.6739398E-2,-1.1822739E-2,8.75144E-3,-1.6615756E-1,1.6664209E-2,-1.5502141E-2,3.0903274E-2,9.229802E-2],"categories":[],"categories_nodes":[],"categories_segments":[],"categories_sizes":[],"default_left":[0,0,0,0,0,0,0,0,0,0,0,0,0,0,0,0,0,0,0,0,0,0,0,0,0,0,0,0,0,0,0],"id":52,"left_children":[1,3,5,7,9,11,13,15,17,19,21,23,25,27,29,-1,-1,-1,-1,-1,-1,-1,-1,-1,-1,-1,-1,-1,-1,-1,-1],"loss_changes":[6.666193E2,2.0714023E2,2.1079706E2,5.2431076E1,1.2758476E2,1.0625024E2,1.7947137E2,4.588022E1,5.065579E1,8.634814E1,3.699565E1,4.5668354E1,8.291953E1,8.7020355E1,1.6326825E2,0E0,0E0,0E0,0E0,0E0,0E0,0E0,0E0,0E0,0E0,0E0,0E0,0E0,0E0,0E0,0E0],"parents":[2147483647,0,0,1,1,2,2,3,3,4,4,5,5,6,6,7,7,8,8,9,9,10,10,11,11,12,12,13,13,14,14],"right_children":[2,4,6,8,10,12,14,16,18,20,22,24,26,28,30,-1,-1,-1,-1,-1,-1,-1,-1,-1,-1,-1,-1,-1,-1,-1,-1],"split_conditions":[3E-1,2.2E0,1E0,5.0219E4,1.84E2,4.8E1,7.2E0,0E0,4.9E1,5.6E1,2.07911E6,1E0,2.49E2,1E0,7.25E-1,-4.3345768E-2,-4.689028E-3,-3.9905375E-3,3.6896467E-3,1.1961869E-3,1.2032698E-2,-2.0511469E-2,2.737433E-1,3.6739398E-2,-1.1822739E-2,8.75144E-3,-1.6615756E-1,1.6664209E-2,-1.5502141E-2,3.0903274E-2,9.229802E-2],"split_indices":[1,2,18,0,4,6,2,5,6,6,0,17,4,19,1,0,0,0,0,0,0,0,0,0,0,0,0,0,0,0,0],"split_type":[0,0,0,0,0,0,0,0,0,0,0,0,0,0,0,0,0,0,0,0,0,0,0,0,0,0,0,0,0,0,0],"sum_hessian":[5.2424E4,4.3761E4,8.663E3,3.6037E4,7.724E3,4.383E3,4.28E3,2.8421E4,7.616E3,7.719E3,5E0,9.25E2,3.458E3,3.526E3,7.54E2,6.7E1,2.8354E4,4.046E3,3.57E3,5.396E3,2.323E3,1E0,4E0,4.4E1,8.81E2,3.453E3,5E0,3.33E3,1.96E2,6.42E2,1.12E2],"tree_param":{"num_deleted":"0","num_feature":"20","num_nodes":"31","size_leaf_vector":"1"}},{"base_weights":[2.04304E-3,-8.076128E-2,1.3043724E-1,-1.1425631E0,-7.798231E-2,8.048063E-2,3.696849E-1,-3.0936012E-1,-1.7436619E0,-8.41771E-2,3.6598167E-1,5.0198674E-2,3.749854E-1,1.4084966E-1,6.040593E-1,-3.374226E-2,3.876037E-2,-6.620803E-2,-1.0930226E-1,-3.97235E-3,2.4887744E-1,1.4541544E-2,1.7849877E-1,1.6504069E-3,2.6683588E-2,1.6746834E-2,2.9120752E-1,3.7570363E-3,5.957382E-2,4.0496945E-2,9.401216E-3],"categories":[],"categories_nodes":[],"categories_segments":[],"categories_sizes":[],"default_left":[0,0,0,0,0,0,0,0,0,0,0,0,0,0,0,0,0,0,0,0,0,0,0,0,0,0,0,0,0,0,0],"id":53,"left_children":[1,3,5,7,9,11,13,15,17,19,21,23,25,27,29,-1,-1,-1,-1,-1,-1,-1,-1,-1,-1,-1,-1,-1,-1,-1,-1],